0,1,2,3,4,5,6,7,8,9,10,11,12,13,14,15,16,17,18,19,20,21,22,23,24,25,26,27,28,29,30,31,32,33,34,35,36,37,38,39,40,41,42,43,44,45,46,47,48,49,50,51,52,53,54,55,56,57,58,59,60,61,62,63,64,65,66,67,68,69,70,71,72,73,74,75,76,77,78,79,80,81,82,83,84,85,86,87,88,89,90,91,92,93,94,95,96,97,98,99
-8.169543286130884e-19,2.812875278464811e-18,1.3432972802160258e-17,5.431303160345157e-18,1.0014209759491535e-18,9.148537410483187e-19,8.516251952038548e-18,-5.834764822329041e-18,-0.00019080199090342856,7.482542013887972e-05,0.0007471133673293037,-0.00037844224413975745,0.0002709838976481176,0.0016309778011929653,0.002553745039059433,0.0015594508219700803,-0.0020003065697568184,-0.001626555547378346,0.0012138934566427262,-8.986532492260375e-06,-0.002400880650204894,-0.0016249506536762598,-0.0005601088634456674,-3.2731745626040615e-05,-0.0013641728643680269,-0.004245120377488337,-0.00214662888368118,-0.005737294947609488,-0.0006028606947622989,0.003959874534853272,0.0012850981335574198,-0.0041806828617023985,-0.0004160405151392384,-0.0005645523016562854,-0.0026628892662084493,0.0013265781676273694,-0.0009094755952939019,-0.001804596362797634,0.0015932187173775716,-0.0019102165740322024,-0.0014480771162102813,0.0010238713529408523,-7.77105480360181e-05,-0.0035113584562099123,0.001505158486515506,-0.004928383437526422,0.00014067141614067637,0.0020226461041120704,0.0030319610366597344,-6.707533920440856e-05,-0.005770826688320545,-0.002245309682202409,0.0003745919456863347,0.0014348115342309056,0.0021636263410546755,0.002975969753831393,0.0011537823334287498,7.948037485993577e-05,0.0005326532849543133,0.004927657790141107,0.0025041216658231533,-0.0041192772767847715,-0.0034676785877904787,-0.0028244723148451185,0.0010704818184365257,-0.0007177824759102313,-0.0018917069027638031,0.000440142292238393,0.00454322634772997,-0.0011636124892836063,-0.0012456875058600397,0.0010379736618416303,0.0033534699047109992,-0.00030491146062840786,0.0010062164190797979,0.0006044715888114664,-0.0007396673086443311,-0.0036278739271688016,-0.0030218762031859487,0.002262999212803619,0.0008323771637427564,0.0007002040791045877,0.0010725136725148418,-0.0007648310401263271,-0.004267100240803176,-0.002364077557555136,-0.0006714684375646891,0.001452798683804388,0.003532503670640109,-0.0015637551985727884,0.004808798670642077,0.004642740888276791,0.0009518245098986491,0.00018885827368188147,0.003994955473895356,0.002171398996998101,-0.002520594700459784,-0.0003707493110706833,-0.0008865878007401959,-0.0022853996829926824
-0.017746166183352854,0.012873597524393933,-0.07222876212338047,-0.006660274478212025,0.005581086692801591,4.5613230693608576e-05,0.012741960630718025,-0.02330735397747494,0.17414354759143869,0.0460114379409941,0.002488011711619207,0.0157586773948816,0.04516578630634073,-0.03997226343192152,0.001994380970333742,0.001740732817388829,-0.0065522502704379836,0.004946491210822232,-0.03158608195275634,0.013693630365474514,-0.02422382798746446,0.01689267170770961,-0.12266297200673175,0.07630395744030778,-0.050845352248555443,0.040759661316386295,0.07715433958162005,-0.005628094631373526,-0.008513207256976343,-0.015289386857772196,0.020601988492765396,0.017504281782693858,-0.06251756460516032,0.04367375647980355,0.009082444599363991,-0.047110630709305934,-0.01954830029059703,0.012457987395490793,-0.02407698614636359,-0.019318725637628646,-0.0008272697058578851,0.00027088806801355746,0.005249551048857822,0.009348078314922244,0.11537961079816499,0.0025499168177462194,-0.020888782024080697,0.0018726730335109545,0.014362807524268193,-0.0032955641561738095,-0.011795023154419217,-0.055260481375594125,0.09697668023665362,0.056605878251624095,0.02012479500401553,0.022034723316595194,0.006313886599589738,0.08921713284881168,0.025881690976797156,-0.027657434418173036,-0.029062933321520056,-0.015774380022924788,0.01255628414339216,-0.011633047083948276,0.054113036906229754,-0.02273253264834024,-0.01717780681147223,0.006063809979062186,0.03538506738680046,-0.06044468733516819,0.06584689916829581,-0.044465126324187705,0.07873854849375764,-0.02053878920446677,-0.06571294329277819,-0.03903918302628394,0.030215333127441003,0.01030299214311622,-0.034688152887342456,-0.04385923268519034,-0.02210548129866923,0.07803012083238758,0.016327566573245047,-0.0031155918213701577,-0.028934472525220956,-0.0060910373299114026,0.060558541039632985,-0.02800382101978449,-0.03145341969124171,0.0877244895578669,0.06889169322157757,-0.09198875200233177,0.09163172746157075,0.0104887566792278,-0.10305407105514328,0.025221348958807146,-0.06565005223079928,-0.20303841631021433,0.08743760950659349,0.057842708127099525
-0.03456944038171723,0.03891260560682602,-0.020709140438615856,0.01984313978403398,-0.016310414941341982,-0.010908060169640934,-0.03381325931626892,0.0392160792879359,-0.06144434113772753,-0.00508499844656993,0.010697189560985088,0.11533146379643185,-0.10655871175321814,0.012501333700110712,0.011060166841133114,-0.04119273138731115,0.13582355488783276,-0.04143227718406,0.07651362047120375,-0.04363227391104017,0.03553007701758645,-0.07164407936049019,-0.04493831367512528,-0.03850058020615901,0.04785052592637204,-0.00013893624316586322,0.0823531893103116,0.0038490505757510732,-0.061388094183727475,0.039139504852420605,-0.05524882370891417,0.023240779983842566,-0.06859518990574098,-0.02171382228505653,0.005265922424468487,-0.009907414651553712,-0.02030149193633878,0.04716259853321802,-0.025733194110707864,-0.023233067216986238,0.012947711548090152,0.016789605415144463,-0.009359464472977023,0.16128452019678527,-0.045687898959458136,0.02006139131122941,-0.0399909194073763,-0.047288761691025076,0.0130173114975503,0.022219883350275638,-0.06113530506986812,0.02640709012525141,-0.07471432026008669,-0.039664336541688744,-0.023107234834503845,0.0307575621654694,0.09953804969473672,0.025497391937278065,0.013332845858030224,-0.028109286280239936,0.04529489896075438,-0.016995089949724165,0.008774123368607915,-0.0771087074504196,0.0213925839824853,0.014128553768792672,-0.07189786879646785,0.03265225078761035,0.013982104075269461,0.025225563268563525,-0.005785455016027554,0.03885913580169418,0.0781139825196018,-0.033150941507739916,-0.10768505272931385,-0.07485394617173709,0.08183285059783377,0.06962075411148637,0.13971366247851796,0.08041345103352347,-0.0863814535233784,-0.09844721120180197,0.044332775648886436,-0.0814162282804434,-0.021742588967775818,-0.06156274459623529,-0.035424110710544236,-0.07442300223318088,-0.01393811657087897,0.03115538858900004,0.0007714729439089567,-0.039599088558192296,0.01931130071285456,0.016042047317035447,-0.019546800664894285,0.0688764712680576,0.013115400821707951,0.03250220059397777,-0.03231744385351459,0.08579920327782256
-0.042073908815043755,0.03812509083660772,0.0037598686955920804,0.022126895636754518,0.004126742973160074,0.024109022226203775,0.030608116479873937,0.021141883975368522,0.0013860451525219482,0.03750841445398847,0.006198215249765959,0.03350486973722318,0.005181212655249208,0.016501591778851302,-0.008843901750824827,-0.0006678390437818701,0.008692136887958085,0.04120678747377504,0.03665618719765934,0.016352807576040483,0.021547618154729824,0.053682368928620425,0.0771753703862883,-0.01964511197567496,-0.031009026666819334,0.06901976571805638,0.03394350582812398,-0.005267635295714756,-0.015681181189489225,-0.03211557684875269,-0.018194338907039906,0.04216508759891196,0.05207297809368707,0.0326413688293368,0.010445630282368654,-0.12262727880933759,-0.009050683363228758,0.12135080633774936,-0.051710238855030934,-0.05218663169689044,-0.016599674937664757,0.006304839726259406,0.030101767806654394,0.029840085294839582,-0.04757641979651039,-0.012937921623613227,0.03229179098218585,-0.04934203235461609,-0.07032158802317262,0.02490489722971064,-0.0009340961683136673,-0.005099308436569313,0.08844161628096753,0.003579498559846237,-0.023313558495215547,0.019667775196902455,-0.06290455539396693,0.05218736747879669,0.032264978192977745,0.03801573135670411,-0.04556164354631909,-0.04475968553447955,-0.037556192746416396,0.0037850618795297036,-0.020641998974478246,0.010012276932491628,0.04848697643430233,-0.06610827854843983,0.06153668654717237,0.17778219986243424,0.0016870688611868526,0.06003311873631462,-0.011086249149800415,-0.09383656012813048,0.017436954731788037,0.033909215344752434,0.015410312433341055,0.01639926707801086,0.04715663342141441,-0.020716489194089614,-0.06641861831510198,0.002674722756211891,0.009027327233053967,0.007837142993237496,-0.017418278888695467,0.08531144883221109,0.01896063095178287,-0.02790298812327693,-0.02613340633462441,-0.029443411629044198,0.056725059725302035,-0.0496210090918005,0.023125956434667274,-0.02435805585717717,0.03407716247087036,-0.10543890195113124,-0.054895309991964264,0.03097993945834392,0.014118145007288606,-0.0131931670927754
-0.01774616618335285,0.012873597524393904,-0.07222876212338059,-0.006660274478211881,0.005581086692801602,4.561323069362807e-05,0.012741960630718132,-0.02330735397747499,0.004454574618064901,-0.03724307809681986,0.004997950389020605,-0.10020074217460366,-0.004730357526940759,-0.05010034222747378,-0.004065799939378926,-0.003933326102991264,-0.0033293437354347147,0.008095382009663657,0.04995253952100731,-0.05164182696780493,0.06565515660675701,-0.010891489206756118,-0.16134563193529838,0.03020759348520669,-0.014449758645871039,-0.03195449719933876,0.09184211881684932,0.0019312980302480622,-0.012176126726841062,-0.009763941532829836,0.051691742920841124,-0.003404120558272042,-0.009070922492752737,-0.044228963688943065,-0.0018016680854964413,0.07350345673968997,0.009331067831723008,0.07782099111081646,0.035621376428334954,-0.037608476712486794,-0.004922876699985027,-0.004023759938864952,-0.005040319849938952,0.004455386917974954,0.0024733755346147586,0.0981245094860907,0.04084458957454996,0.0384781162751888,0.012578717098240865,-0.009638442973582923,-0.017505705436329552,-0.04195739438128078,0.015576905021830845,0.04279662242089348,0.05226735509191263,0.022354545801621137,0.0506272091025192,0.010701779652583414,-0.07731722327521101,-0.04652357935199488,0.0766647994955662,-0.014380862838124607,0.029877115075849257,0.07313832261467455,-0.040068070169550905,-0.03325910124084522,-0.006760406214926264,-0.052883679647354936,-0.008769792948196155,0.020820358730599238,-0.03201813901033628,0.030286593977860862,-0.0013875605101666087,-0.03773408968341825,-0.10502119702014648,-0.07579126948386496,0.00024086375755156034,0.0706863941026525,-0.018259464306180483,-0.051362112393751665,-0.032222427924010595,-0.03217613511083314,0.0025752186715600834,0.06010870001137709,-0.07393600315739043,-0.023990552299806525,-0.0008104571056900752,0.02859216189904361,-0.020294358784245316,0.041626251191207116,-0.06105295170373377,0.020366885266393533,-0.0530211337381647,-0.054515547819461566,0.022415641633769703,-0.05028308558058283,-0.05040584640687101,-0.03406255689741778,-0.04541291661386779,0.010948513886560483
-0.03568102427045609,0.04499823266943271,-0.022698038020087068,0.024022209257051143,-0.021087239779375943,-0.015989697653285596,-0.042438801521752584,-0.037386968140118215,0.027412219807072195,-0.004685348605275894,0.04954403890388339,-0.029752193316708392,-0.06192752097309698,0.07442438713546859,0.048686307389947454,-0.01904785260292049,-0.024281431461663724,-0.10570832304528176,0.054680827290986465,0.012797796269415497,0.016901471908727827,0.03622934065446728,0.03765939018613256,-0.05929670617524363,-0.07288720339985598,0.03143484599762278,-0.027315705146210057,-0.0011045195826928085,-0.04247386464816682,-0.05531601443803948,-0.032149244534966724,0.1001259297494686,-0.007956925802146074,0.011705971522526358,-0.14761917298545044,-0.07360106115555498,-0.004765841550507304,0.057246391669581155,-0.04543589677456296,0.023910468781156057,-0.046251087445988825,-0.024738582393949164,-0.0602003531951077,-0.051968580628640994,0.03060622925693351,0.06514999191876192,0.020038474656413764,-0.07233934887713779,-0.03316592528041924,0.09169324917529892,0.0006354400326677822,0.0384449986730021,0.022154625675162316,0.032212867507995645,0.05713056897875929,0.04387957426184384,-0.011376681737077114,0.028997057280437038,0.006193901892530583,0.04671391044687205,-0.013125980357450785,-0.04531265656643503,-0.020232433640348515,0.04369200718842134,-0.05963039347208173,0.0016668852103805204,-0.017193216729743017,-0.0031374681513508837,0.06427644466051104,0.005751577640670323,-0.0082442663795047,-0.0658647887608021,0.12042796986893024,0.14532961771859082,0.08515790132937409,0.04465402629934271,0.046820570464085436,0.05543871332370813,0.029253930546199364,0.051776168388422895,-0.03169542801438123,0.05116081367851044,0.009727635031783564,0.020413497700484538,0.06464166356929002,-0.04820235455799916,-0.03374089809824423,-0.03718977513730531,0.00462640008979525,-0.020542526308376843,0.09224947317611777,0.04498676476492454,-0.045882010987403174,-0.004958349754934643,0.004024119591388783,-0.001587076203099385,0.15647590297318734,0.02896367348413786,-0.02933923946916762,0.09608474289985737
-0.03568102427045611,0.04499823266943269,-0.022698038020086936,0.024022209257051307,-0.021087239779376127,-0.015989697653285527,-0.0424388015217526,-0.03738696814011807,-0.013711086679119107,0.005031925681480456,-0.07975793850984271,0.007280489645045222,-0.04615680711285564,0.009545787406384072,-0.15377504485698298,0.06804476209157606,0.04897737466956766,0.04915880306213365,0.10979699610889074,0.015432133232030954,-0.07862860293835985,0.026813425911385243,-0.03831597282680224,-0.026831275198909852,-0.007343696949220789,0.06727437060031011,0.00408537012855867,-0.12158608545041523,0.024299520549473364,-0.1255841300139238,0.1575247474320142,-0.009376953230523812,-0.01685375369757277,0.03271735219279312,0.07491345816568158,-0.011488219687393993,-0.010020031549454566,0.018352890673089182,-0.003955575984255303,-0.0022227475008914956,0.15040706695217593,-0.021124084632528392,-0.1596827184168725,0.06438365476023551,-0.033247864651042035,-0.007983699947376735,0.007584816832910244,0.00896393814120085,-0.06860854975302647,-0.12817270471252515,0.0989474509656339,-0.02483908436493179,0.019875945116508396,0.0036497016002700645,0.01730480843467763,0.030696580881341574,-0.07790673667172278,-0.002367891480597625,-0.06001015003940306,0.014863702616753714,-0.0009524453746650543,-0.02349143553125274,-0.006344324857067785,-0.0032324799476820066,0.07307150235795412,-0.0024010733457115623,-0.0214076682175872,-0.016581917010605435,-0.0341352325776513,-0.061575867346271046,-0.0071279645358247115,0.0021334178656218588,-0.0048742543441148934,-0.041917638512241055,-0.035139930140278434,-0.00837632632961538,-0.004308476104039208,0.045243962676349246,0.06777244645459538,-0.03129317296400595,-0.0048628601866802625,-0.08903169874801542,-0.003420540867732346,0.006856048909254331,0.056598699529965775,-0.014048120804789023,0.003857684369646821,0.05417599864910064,-0.07012872667865847,-0.010948723533947149,-0.02768401707994556,0.02000874226836747,0.006447582390412793,-0.01610098636556941,0.02662027206462327,-0.018162306443140618,0.020733496599622037,-0.02582431973909472,0.018207764890418275,-0.010608901811414323
-0.02177054588461701,0.035265101958954305,-0.005884068896717232,0.030301299427732048,-0.019053453357104153,-0.01345899910750642,-0.03219340618356897,-0.04013766143296069,-0.05992318488417918,0.02826680416634979,-0.014495422982255646,-0.07063682735796338,0.02831459755363552,-0.026201869791978225,0.08162262819243335,0.054494547119337926,0.03526145182655368,0.061279217473619,-0.09972239070811564,-0.01763567898074227,-0.0015894270971654714,-0.07117194464576795,-0.22248963358637283,-0.012609345026329528,0.016096384745766062,-0.14670415285535918,-0.03110085258096581,-0.009522907880493663,0.02713226410519069,0.03503953175308428,-0.05388844716964361,0.11375746553235122,-0.01542180231683954,0.056141384886820245,0.02671248785957334,-0.03200926244352549,0.019811793980662254,-0.03154494587334942,0.01614272976832636,-0.010043452203006622,-0.08901116286217786,0.11513897771245327,-0.117410869668766,0.05628066456915464,-0.06712181253670275,-0.012549799130571379,0.010833164062207676,-0.016354822845114438,-0.012262536414722124,-0.035450494108754914,0.08982917744090954,0.0003095134318416076,0.10207902728918272,-0.019218633251853072,0.010918147847990091,-0.00952533474077697,0.060543410835615624,-0.0005936451979974788,0.01363929885600828,0.044948354495041476,-0.0222823160646312,-0.04792506775423839,0.07993996853691798,-0.022120818609962876,-0.03597574382511935,-0.009566747611505305,-0.030971739613225437,-0.07907662117610477,-0.08101249378457674,0.0653466115956021,0.036493645384079704,0.06068268463227495,-0.09445472753706087,-0.014021714743953789,-0.020607121902678504,0.001691456404702576,0.004951106052769027,0.02082022629922505,-0.07767546222925516,0.0005160530964425972,-0.03344187987673902,-0.017974031949047824,-0.011108829745458411,0.006392816104548956,-0.02775354050225981,-0.061798994210063546,0.026963723554633015,-0.055848447851690824,0.15067931182394087,-0.018049554453416224,0.05186745845397019,0.09563746002150307,0.07447809620387558,0.03451275357807464,0.029481102093086107,0.024570192881043524,0.006987573921606295,-0.024927403502433408,-0.02696473610449832,0.04222345682367765
-0.03568102427045613,0.04499823266943273,-0.022698038020086974,0.024022209257051255,-0.02108723977937594,-0.01598969765328577,-0.04243880152175264,-0.03738696814011811,-0.018683648147387474,0.0660278966663864,-0.05389405005722232,-0.09634819340192172,-0.07074852452086602,0.01787684003008541,-0.031399695736276004,0.016193850777915204,-0.04315735324531689,-0.10974328286355849,-0.031674167897411065,-0.018469799189912282,0.016094358576361257,-0.03950020669824328,0.051171893648128804,0.020645928616421,0.0011974887901559312,-0.08890936882913375,-0.023778193202280827,0.029799128480494926,-0.019888019758748446,-0.02878469195311716,-0.01831327370854857,0.012836745743348855,-0.013774034343994655,-0.022730945130316062,-0.021069249792211718,0.10009510174035742,0.032093393615823806,-0.008075583505135809,-0.08047572478344366,0.02241598424573518,0.020682963314122615,0.017227505358426053,-0.10142839028177883,0.02636908354229911,0.022706945127353433,0.08800159608474956,-0.005427179413752874,0.012538364598318297,-0.05579070545256943,0.05587632271514186,-0.08555925129715376,0.0016029805721780174,0.051027676512248335,0.01235905347924686,-0.00035554109876477085,0.04264978084066241,-0.005469970338612181,0.04227682224603315,-0.026312737585211937,-0.020537283850833723,0.016994870538375347,-0.022290167129015763,-0.02632559897313981,0.01092977388815812,0.0013655450159072826,-0.06260960208936951,-0.04735816412591228,-0.019599838889288932,-0.074107828254988,0.07178357209198143,-0.04624874843054556,0.033594839695312205,0.03943413132877993,-0.000748096388132426,-0.016785957480894228,-0.046843277700172575,0.10713910757851375,0.04048035487916387,-0.014557662773567452,-0.05937863446783393,-0.02400384551690383,0.0795761873096485,-0.04044814444677481,-0.03304397549866611,0.031092583322341095,0.07997344010346566,0.0174767755653529,0.06005659867383752,-0.031352641565838564,0.011130234046313522,-0.0862072779966635,0.001830476261045972,-0.0045330023843275615,-0.05528328125269442,-0.009048270102216358,0.06147645002042193,-0.0038413234764103662,0.063236749567363,-0.049519048303458095,-0.013580401613561482
-0.009415438687714894,0.003761499041980438,-0.003769410213494628,0.00039679215815191255,0.0015713931180721427,0.0037195328536855205,0.0014512455776424743,0.12079739920011985,0.060476311637323574,-0.015609089551000023,0.0007006684032033805,-0.02986438721091076,0.04898907984899592,0.0932446994259906,0.011302577927656713,-0.0027031102813851724,-0.0016513356136941936,-0.1565200181415322,0.10880233940442043,0.15263075764106246,0.027479284602827093,0.07505249999858561,0.08410790348972848,-0.016855828215955458,-0.003988181999848584,-0.04396830723304426,0.056465963010183945,0.02354581681844093,-0.010757718767147803,-0.05609719182045086,0.1914532447906516,0.199294980952507,-0.011154447541291015,0.06002673123829497,-0.04005293060395317,0.03535165262605866,0.057799340863708706,0.08171895782652357,0.04142898178799174,-0.0031271114140610855,0.005079235990292686,0.02408485356667416,-0.046060596426614975,-0.12067299051409743,0.10099817661328062,-0.047537422359332976,0.007221190785978707,0.03678590254994193,0.03611317764832563,-0.016867098835244034,0.07890906466955172,0.1147900454606594,0.011804727121210681,0.03648685814513274,-0.023028853479816556,0.07313788712824625,0.042930422194536154,0.0070113222459143336,0.08905893626223929,-0.010673087178365775,-0.08636591965266309,-0.05214279602736042,-0.017308810576611953,-0.010445718057188393,0.057394679923410845,0.0004443492847698442,-0.0016465940248971917,-0.036265081773700865,0.05439917628643443,-0.031544724486499164,0.06208481806527434,-0.007603712731631761,0.005827792899450366,0.11448900179076565,-0.08896058469245746,0.008144665206226212,0.04755844178034023,-0.021816266248883505,0.009868139887069893,0.05293643945307834,0.021801618759251927,0.01026361890791433,-0.0482395157183667,-0.06541487990888104,-0.01835049595216181,0.0868895982795225,0.05070196592844692,-0.05653882640554355,-0.009399872012403852,-0.021985378414409194,-0.021242023845144745,0.002388000143047623,-0.061084054794320324,-0.02596173343373348,0.11137126334022265,-0.01783923354107702,-0.001979264405359281,-0.007327139807098761,0.008499966559267635,0.06344135622946134
-0.017746166183352875,0.012873597524393895,-0.07222876212338053,-0.006660274478211872,0.005581086692801599,4.5613230693682065e-05,0.012741960630718136,-0.023307353977474937,0.004926482957713214,-0.030185959241688248,-0.00949120159164095,0.12067710225468664,-0.030594627247627796,-0.03442099739422274,0.003014060937083944,-0.06978562296742481,0.03355178335788233,-0.05900657729725815,0.06555735061761676,-0.06979348486965122,-0.04821361117241826,-0.010839302193704705,-0.016029101129745208,-0.055736294247564384,-0.0473895292564023,-0.07561085877979706,0.009190791631523653,0.002296892395411688,0.009134402882930116,0.001103940562118856,-0.11001654518496426,-0.07109648902899467,0.002571916583833375,-0.03424929434399484,0.006290522566357952,-0.016197780967093563,0.0397175624468088,0.05798148364919985,0.04997990338351999,-0.07750956430114288,0.02952351249446885,0.015260334136443093,0.01010762527732349,-0.07902457735314664,0.02242431601251868,-0.03250140959951311,0.03341914521579131,0.02602319937290719,0.06735576568267605,-0.0009733451769396211,0.03862309325780157,0.05622541113493196,0.061527322236775976,-0.0046486168300778116,-0.06403917408681757,0.026913279355692096,-0.04149132299919972,-0.07149980635846928,0.01997032185410072,-0.029642772316144886,0.02932713345434024,0.051731721191975194,0.009868391325365636,-0.06340317865786808,-0.08256938798509891,-0.039318583482408534,-0.08773702182205706,-0.059084365230499404,0.029180230291177157,-0.0279227305005369,0.011333546311392054,0.036228234126191985,0.03466271813201553,0.08738591730558536,-0.031172151096864487,-0.029196997113701696,0.018856641227893663,0.040204398679123045,-0.06379764334974686,-0.053739165308526946,-0.0746438154721346,-0.08204734485505248,-0.020798611586562515,0.005688361214802094,-0.030543159185328177,-0.07611990152239453,0.03159482183065131,-0.014960622188538355,0.01439115546073636,-0.014111533066000789,-0.04670561939932597,0.014387586241670329,0.008783911463998685,0.010195669498774191,-0.05358942432812721,-0.032687089053200495,-0.06068131481115226,0.02111123790275319,0.006174362392673678,0.007563796367153177
-0.01920615499224155,0.011762789587776282,-0.053738823017188325,-0.0044289508223563315,0.005057566976568697,0.0026623603284226032,0.010036112356710921,0.06893587207511552,0.07857699949090774,-0.036885858476514884,-0.045312066847971025,0.043657775020625025,0.05109923854719583,0.04984349280431453,0.017064391109003936,-0.017922142098641902,0.060904183826713025,-0.04263882511113719,-0.009737778497085242,-0.10399244246772014,-0.1991136426061173,-0.019891130925259046,0.007027292876370885,0.07033009556699356,0.038819529715069016,-0.029510815709021185,0.0353396800814931,0.030638159073218013,0.017972925734084735,-0.09259775845578286,0.03811011283572427,0.04699295098204284,-0.0484448717640007,0.03818116356477542,-0.10765366118224814,0.03709297036536229,-0.05129217777671079,0.014057384320633312,0.040163590063557554,0.0005868126609994069,-0.19457021567358498,0.016574613588526944,-0.023170470398743367,-0.05416441077715641,-0.06244359009958777,-0.0007563387564338037,0.05739115202752181,0.021276752886206313,-0.025029752196384227,-0.014704831500556374,-0.0033170439561275426,-0.00712800914246147,-0.02640691383711215,0.012342090787837736,0.0048457424272465325,0.026268887440501217,-0.02619098771919171,0.04886115941761878,-0.045564084432600294,0.02949645037074135,-0.018232546057433862,-0.024379393921183826,-0.013144684035569378,0.14133601237601642,0.018813353943839848,0.014936921697214786,-0.03230334618176497,0.05460843541427489,-0.03257533805874078,-0.014774252607964868,0.012345032701553621,-0.04263316116387553,-0.008558912545489449,0.01520026497546475,-0.05506539463954495,-0.007294398984339716,0.1001746634732911,-0.12001092212737956,-0.09501125950141477,-0.11283189268020664,-0.047218606881308335,-0.002710716953085997,0.049559265212288345,0.037767718182830666,0.022249580677102903,0.04021468163679,0.03588086611667054,0.06902144720842432,-0.08855244261528615,-0.01332622634846327,-0.004984931213555939,-0.014141241784886642,-0.03207537269189269,0.13307518095236323,-0.05093987104575739,-0.06770665401705718,-0.018844065635454404,0.07173213684863852,-0.06183080753313918,0.02372689172308283
-0.022337043679548845,-0.01884068556175605,-0.012102339945352166,-0.06171558740095698,0.007502029481433366,0.0014589404139545609,-0.023557974361230107,-0.03427379975412349,0.009185635496299187,-0.002350914890078887,-0.006975586046994937,0.01745275558608886,-0.005870079128360134,-0.05420412836923526,0.03498177301289208,-0.015193365013408879,0.03903649008389415,-0.1289073094871972,-0.010304183598824119,0.03139939969242635,-0.023351413117584763,-0.006610305732631948,-0.01218406700206476,0.0328912132254101,-0.03182243521643777,0.02014834004011404,-0.034718559222522996,0.019057034810336375,0.07864060474151237,-0.038311527725359826,0.007841275879905634,-0.022942374921282184,0.012270917722108324,-0.03859450966648804,-0.015160953657333914,0.02547079305387902,-0.027074968738198302,0.007434387728115018,-0.01343037507166873,0.0214114078221802,-0.08647859097757546,0.013857899642383457,0.027978180460955702,-0.0028588097656822757,0.038193133574000795,-0.05025464089237775,0.022373570930766425,0.028861849400268157,-0.0024928192592874776,0.009266678043924155,-0.016627924012572542,-0.013041159758427198,0.054189150265119064,-0.012784341612897102,0.020695304069779652,0.006387831755081549,0.01763157003619853,0.03962161166504741,-0.039628892209308715,-0.03244244973090307,-0.011985792018299284,0.025344870771920044,-0.012267911563269363,-0.031113396282059554,0.005123305086549196,-0.001555830928964792,0.014751573810759928,-0.039076943285833034,0.061857501766735726,-0.0144521867100968,0.013152403771129357,-0.043059193655930965,-0.02985570241701662,0.03918099879131511,-0.05051478964078208,0.007821386890898533,0.07327843602687269,-0.04941134610145792,0.0069951837177235875,-0.026526713378201828,-0.005178840404591614,-0.11672310871279447,0.0072835243613077845,-0.02958091732793473,-0.004488742642082104,-0.08043093520253479,-0.005113655304432664,-0.010808725954587085,-0.056624770132808866,-0.03215616223969144,-0.03388578756307907,0.06037535164339754,0.05922340514142418,-0.007180889145767654,0.07059394597058727,0.002995418934758466,-0.0029544056436950866,0.03313751756765765,-0.013241112472053557,-0.02963059088215526
-0.024052166615789357,-0.014435762800205249,-0.012365638944657373,-0.05324887041963139,0.00728264466989714,0.003123245887935148,-0.01967618146970648,0.030716718328768225,-0.029622743199187142,-0.005224621501671385,0.0031636680167156177,0.030539818463391155,0.09073960775340154,-0.03384086232467417,0.005246903447670451,0.08172791526030468,0.04456874681918482,0.15646465757758082,0.033197868542107524,-0.1825783641205657,-0.07283307212561374,0.0900699254078106,-0.04765146084770267,-0.016553261544781123,0.03176158006348071,-0.06295702129261355,0.10166929236288931,-0.009764740430306102,0.02539630100635904,0.07550993658016442,0.13424460819008321,-0.12302000177291789,0.11283123692032004,0.023205934685417703,-0.10731532594124164,-0.02279924838973401,0.0001409789720195894,0.029977887391723978,-0.0132487731590201,0.010358742640910782,-0.009464408495502157,0.023871982638783155,0.0838782403264786,0.03639165550009065,0.08339140711087659,-0.1323262203978712,0.042503721619789894,-0.011095770040697592,-0.008101163097642505,0.03212920202815304,-0.16825125838652022,-0.12047034031127045,0.06828135679168586,0.0028234624816648925,-0.052184283918659397,-0.03072421079695725,0.009177294547849603,-0.040728479879695,0.025350504079914404,0.0646009937788182,0.011339079514595406,-0.054157313781555444,0.027012646905724663,-0.012856171378579083,-0.012993200941195352,0.08529386625469683,0.03809857001069819,-0.04538759211261422,-0.1018465240439978,-0.049996183482250885,0.013758476210821678,0.0827278416987128,0.03233906916254323,0.04586138036234942,0.046313954947816496,0.009577535605135532,-0.00416252357277171,0.10091273421032033,0.08068592329166173,-0.006983843960033719,-0.030427375089240566,0.05137547299884676,-0.023184503174548125,0.045476104105448084,0.07233074555101143,0.04843552694661921,-0.014581015264494254,0.0060674461158710885,0.07000632435480682,-0.044766159607298274,-0.025612021456414568,-0.010309820988830291,0.04567200196248111,0.003145817863832124,-0.10067513966829093,-0.09268521757309175,-0.14039772503077164,-0.1307129939796107,0.0023668919711960497,0.017021542625669947
-0.019206154992241584,0.011762789587776237,-0.05373882301718836,-0.004428950822356364,0.00505756697656871,0.002662360328422478,0.010036112356710904,0.0689358720751157,0.0068888275266665725,-0.01481560738521455,-0.015787719006952004,0.003160208397607505,0.03208074288905704,0.00546180527438128,-0.010748198805522854,-0.05562851907509103,-0.49759140524243006,0.08880092890474793,0.005210345005158839,-0.13192343169691365,-0.15248369622387517,0.03702804107363299,0.008564940609314621,0.019358686347229162,-0.020932518564577122,-0.009590892206880626,-0.008141192820652714,-0.00016227681654618116,0.34939686037809664,-0.23446160051474743,-0.059156465178626744,0.08739931826922487,-0.14831113732483592,0.027838215714043768,-0.006551502149449608,0.039867391956725104,0.007847976502267961,0.02766906302045787,0.03520295602616003,0.038450744476516314,0.20294271944759754,0.014617623728767104,-0.020706219436327434,0.09837336654442849,0.03040192824345636,-0.03518168882709354,0.0012279781664434185,0.010255195717633026,-0.006371329394419815,-0.011550340510270466,-0.09740633540452358,0.035976877533537135,3.018897085013098e-05,-0.06119220914054656,0.052442149092857646,0.0008024475663119118,0.009354543302894331,0.0368520283058723,-0.06050227601317715,-0.0036643393238059343,0.002193558084990765,0.022295012782326682,0.03995055947212205,0.02106709577873055,-0.08267644410321871,0.030495874776686138,-0.014367291718797396,-0.014172752444618839,0.058217101024835106,-0.014724737602622688,-0.0075380303425250685,0.027779230232736055,-8.042699082298326e-05,0.02868763151723479,0.015400126357516076,0.02049247741539028,0.00814878073879744,-0.08123975815517528,0.012916976546377286,-0.017712150075464648,0.029715066721064776,-0.07057853171979694,-0.003746000395338406,0.0069754736580399865,0.0081379721249508,-0.016034075707243786,0.017068479436238442,-0.036373454960250386,-0.03571779134841181,-0.031818686095962626,-0.02449918218464395,0.04018163346109454,0.056432333413866005,-0.01616133005609382,0.03428130809289961,0.029919158691179573,-0.01661576282685701,0.07858145285192668,0.016600074793009723,-0.023687514118094576
-0.03570165840157676,0.009065244378573537,0.009583510620146535,-0.033130862194858404,-0.011204525480043227,-0.010065750794015296,-0.056781548915348166,-0.044464882982437254,0.05237201377289209,-0.06923060885785559,-0.022263532152518927,-0.038151527359204865,0.06531850855538565,0.016717622018626907,0.06079673805897238,0.019102356186007956,-0.021501196322234503,-0.011605726080470344,-0.01022156476455915,-0.05811767386229804,0.03254884654238309,-0.005165239884839475,0.011392143087038762,-0.027997660348954706,0.0021865939478501826,-0.011197021915676302,-0.007140107028836034,-0.030248117914269713,0.02476763452840375,-0.009259995195826794,-0.018664541301988646,0.06226730856450113,0.02899398620163935,0.02531684944743603,0.039375403080038666,0.010568854672513638,-0.025874023747496436,-0.006662828222909368,-0.010645483277412516,-0.0011355606225064384,-0.07043893269303511,-0.010506970656489726,-0.12323687430340317,0.05792743925352008,-0.10024411328953242,0.024773314861479788,-0.014517203927117878,0.056001815280042035,0.11834132612265362,0.031173140895291992,0.004403287445847158,0.024399635971065987,0.031840723718665004,0.043691560610393136,-0.031238189887116446,0.013278500904949128,-0.009203180844916458,0.03888377193603903,-0.035068740915849446,-0.051747916283351285,0.02536767796453213,-0.06776942332671373,0.00942614315918879,-0.017967428711656686,0.003970003715749209,-0.009826945051225668,-0.01779415716896077,-0.10460326968690936,0.029928305427585226,0.05205685153349877,0.02990981376378907,-0.026854545119238033,0.02772008176566194,-0.04884295012175503,-0.0547285141006681,-0.06489225267793422,-0.007545815145953479,0.06480289344406179,-0.08887594012451062,0.04851382744503039,0.02317857486858206,0.05169236602134799,-0.008552318283922736,-0.057863645313162015,-0.006297619197885698,0.05095789122801415,0.007396892156664359,0.05890141037519201,-0.055223664202206216,-0.06661338407625897,-0.0005930437379118732,0.03681861913358418,-0.014740705455000225,0.020132700264580125,0.05515023041283881,0.08844655779441006,-0.038030070631586,-0.0061519269946891195,0.028558613176583206,-0.07891070527803987
-0.009415438687714883,0.0037614990419803786,-0.003769410213494608,0.00039679215815204005,0.001571393118072145,0.003719532853685732,0.0014512455776426174,0.12079739920012018,0.013490706279024696,-0.09085472534060232,0.08782380959633149,0.03559561772079678,-0.02845681154706137,0.013717078931785113,-0.00395606446822155,0.1289291683278825,-0.027195625498074125,-0.02093653320854709,-0.052816663529960964,-0.027608911676292244,-0.008797182103838784,-0.023308960082204903,0.028763437496159314,0.053362232099012745,-0.010911117238536282,0.09331423406692661,0.08091207906051534,0.01056083946227461,0.009877994039333364,-0.01494015730387459,0.020011137494600064,-0.07462091333730889,-0.002207308347447013,0.00262070330619014,0.008059328886442268,0.008041056437155216,0.04300132589452645,0.02357960817203066,-0.0492583955545945,0.004099978990525485,-0.09983140868720614,0.009175485801509337,0.14999235378004444,0.10835592028518715,-0.07116455093607209,-0.01877869483692192,-0.02750152742401855,-0.023410004883185027,0.06711270853976103,-0.01714009655238578,0.06893188210569075,0.04572133115459998,0.1162697679097922,-0.025537830516649266,-0.027796820186917797,0.10827230090803665,-0.020753748777924765,-0.007613937528589181,-0.017284949324245246,0.06985357059723796,-0.039920914192524554,0.08479188370969235,-0.0047168417727494645,-0.037744235021529605,0.030904619679443922,-0.021411470381176963,-0.021500409309620314,-0.003017664471699383,-0.033368650198720894,0.06462502963395143,0.050657020100895594,-0.012082283437726752,0.08344302774828649,-0.041724901244786554,0.013197290276938663,-0.00853607169361574,-0.12340755914861011,-0.01859354761214678,0.021538262375201442,-0.0002518933580827611,0.05128004716062492,-0.016852512426857646,0.015003721561628373,-0.0394252692063715,-0.024307640456534996,0.017183220820894733,0.0014837635820064772,0.02174638733092023,-0.00825074302916058,0.0974067486630828,-0.08994208711171506,-0.0338467775845507,0.012307026163899044,0.05078031922666434,-0.037031867276207234,0.044775041635844476,-0.0404756990342546,0.00978559849347883,0.009722180836523918,-0.12068427075337136
-0.035681024270456094,0.04499823266943274,-0.022698038020087068,0.024022209257051133,-0.02108723977937594,-0.015989697653285673,-0.042438801521752556,-0.03738696814011829,-0.019717942136849007,-0.017448403328494438,0.034167534327730745,0.014321585161882961,-0.00725879110304596,-0.04079445451644375,-0.013507575889541837,-0.032002096106021984,0.0058336815694268376,0.028120336615690907,0.024250815833096115,0.0014778537244643872,-0.021621582682708564,-0.1361807703544231,-0.09191194312893843,0.07048596113826032,-0.0479584365127889,-0.062359600523435754,-0.02609352473521208,0.003284905002279246,0.0063253399800738954,0.017878080309660836,-0.04447481385312532,-0.018250707230186264,0.09936053457022716,0.04098226375375907,-0.01141856258406875,-0.07088642083816735,-0.0881766246590217,-0.04897523873580919,0.09771815041661316,0.019904960693857315,-0.035094579768449916,0.03273012370492648,-0.0027337206937549856,-0.006608123950394337,0.014466901324935352,0.022460156773238416,0.020015366480418233,0.02390692653611005,-0.052878869838368654,0.020714699540530866,-0.03698255167553893,0.011473758526158017,0.008893960235357433,-0.05947245110664571,0.01944885692190115,-0.03512088159370483,-0.07854432536577198,-0.055402327470052054,-0.04567256289195523,-0.02028165847232538,-0.013141320678609889,-0.02306035742750707,-0.07885013993895924,-0.0102058367728118,-0.05469650701014201,0.05013834512867565,-0.009721938068051323,-0.02884843828446548,0.033959115301690844,-0.047771795493432835,-0.06791230902654005,-0.04432824139698124,0.07835989410146693,0.013683212447270974,-0.06372884271396809,-0.022269748081620137,-0.07219596455819267,0.028211363620045303,-0.09591232265978422,-0.04945754787505415,0.06349721411764085,0.08977144281766135,-0.013114003070635517,0.046305346670418225,0.03444244781700542,-0.09634755896802011,0.07478422338591495,-0.08382074336324812,-0.08526170545585567,0.02739286131281066,0.04677114861628501,-0.04864787884996826,-0.031953116588651666,0.06769569200860433,0.005486985594445297,0.14717013456084196,0.057342452292111636,0.055624037133578066,0.011858855520357457,-0.02402218549459603
-0.008318871447723562,0.008128476317163793,-0.031228763716163108,0.007071024499468456,0.0022936919681409438,0.0017703424618236638,0.010652181582673257,0.046674574077302536,0.17698938913237997,-0.010222209953415067,-0.04742729077324675,0.01824056278479858,-0.058771222551006606,0.012524937117870278,-0.03166643078377142,0.04617413423449846,-0.03359823037832191,0.0913480352842273,0.04138091216578476,0.08192954256740985,0.04078428942331841,0.07577813220960777,0.011897919991764264,-0.059379513938305754,0.02211800581564858,0.06954416325887829,-0.011565069538419796,-0.011419124243702542,0.03980477121724342,-0.04339748722814133,-0.02351215751028416,-0.05209453776762632,0.10618534195806606,-0.11162380745727671,-0.056178325290364,-0.014078020905368516,0.018429757735030184,-0.00490243673913841,-0.018215836513628764,0.014303838262216996,-0.1391368238213725,-0.023609002619147848,-0.11093882159984096,0.17566334591275765,0.0706552290064902,-0.04381143022298174,0.09334377678293954,-0.05562486270989846,0.03746080808516568,-0.02378485031488893,0.08597599770263407,0.06176346357121361,-0.15598771253919722,0.03816912073088768,0.07783295550411831,-0.016246098961610236,0.09747187808455626,-0.06551038615468474,-0.17865170326658233,0.02782905512515634,-0.013388664305440121,0.025052342735714148,0.03511537349721884,0.14041871617306143,-0.045688335438048094,-0.16249736173615015,-0.06948747823459164,-0.024030554491645918,-0.049143427926505785,0.010262436436959938,0.012471171448928814,0.019802906739175806,-0.016541159983378337,0.1429587263898378,0.024033208004085357,0.08822244965255913,0.1507394136481603,0.0511486746133359,-0.08564902414806644,0.05549191005337932,-0.04518818713815973,0.15927576152721806,0.09193536554525593,-0.020490743839194598,-0.09187979033088291,0.045848125195530554,0.035491827747704915,-0.06898736771545393,0.005729854492389871,-0.03299509290966277,-0.06525002294284453,-0.031089247678730114,0.05786363613645175,0.04929079219620613,-0.05061210600098347,-0.0628136448861396,0.08951486249664753,-0.008794822551424695,0.031981171326408195,-0.06337319607812583
-0.04207390881504378,0.038125090836607714,0.003759868695592106,0.022126895636754594,0.004126742973160088,0.024109022226203605,0.03060811647987393,0.021141883975368665,0.003427087519805849,-0.022207596852806065,-0.0003853144193159225,0.017514310588580845,-0.07947088288647779,-0.01280903386988792,0.004393126122576326,-0.006452212679497952,-0.007119897311768289,0.00807825999982371,0.012425316580813278,0.0036182548145572294,-0.016078941079595527,0.024105121165295448,-0.08374294274735014,0.014275886303319423,-0.09598762207660182,0.06889254577309148,0.11910722863523727,-0.0155403751023257,-0.01298406323256455,-0.0404025861246917,0.007338173359295335,0.005730178466587363,-0.021442638420744942,-0.02179019422555533,0.006419622988232831,-0.05845541493002632,0.03570122885756972,-0.09340354752594181,0.02539389828641253,-0.004161973698094816,-0.04976747024904827,0.006221321482438656,0.019271344718227224,-0.014826880362297472,-0.03517858044032501,-0.01749623615682575,0.03043647153550988,-0.0250668036084046,-0.0375972949024723,-5.878202214127203e-05,0.005352687069278965,0.046048782110464856,-0.0001969502151391569,0.04321731840995592,-0.003867756229211157,0.013676121365501606,-0.00799384238770212,0.0762279588436592,0.011477223093141198,-0.02734668794020444,-0.07044904382481491,0.11616404276012827,2.921758589868883e-05,-0.0015776505364115225,-0.03556413529174828,0.03356719495341647,0.14483617236691226,0.08547208776454136,0.024555903058442435,0.03446448147193821,-0.0351553821647781,0.040081303696653414,-0.11440461888825086,-0.04803187645747328,0.008129814504451808,0.010193731334442216,0.06918623861103723,0.06329337570103777,-0.004725339659208688,-0.01127719380824579,0.0002635148151267285,0.003752836029312427,-0.06260765594134766,0.029262672180486664,0.006590192010133545,0.0059761909866226,0.02868505621097874,-0.0578173637948113,0.0035863993044269685,-0.05136311961744135,-0.018601078136227044,0.04292183210460751,-0.027343304431651966,0.07316880981098804,0.04066681658266079,-0.08800198686188868,-0.0016166421370064229,0.07363638505509351,-0.026152780536394117,-0.0018443492365902276
-0.019206154992241528,0.011762789587776412,-0.0537388230171883,-0.004428950822356384,0.005057566976568704,0.0026623603284226137,0.010036112356710888,0.06893587207511552,0.01353205329993265,0.006371578894739329,0.006037734232911124,-0.12940392120969332,-0.005527513391343964,0.026794675873858597,0.008927840892784705,-0.010722159785865814,0.0030811114000612165,-0.27536554029106663,-0.09066946281488175,-0.09914203984549248,-0.05850875372103319,-0.005207525469533061,-0.04033764994111581,0.0009579603084155842,0.041257638677524675,0.009981818803160437,0.0213038984414109,0.018772213643077743,-0.013937706584405919,0.048120426502678115,0.02674905164293985,0.03279687165980833,-0.031237105326106504,0.04919785655550449,0.012359648004728293,-0.019569642382689795,0.003981554780566694,0.007333846038398289,0.0273221627629951,0.002495927253259951,0.057819831630447655,0.014366620594047665,-0.017323938292580398,0.07919006035939723,-0.02049056725543788,-0.07166552055567174,0.03867937273787711,-0.00903556506739014,0.14379576226007354,-0.008547664792350598,0.14085670024465274,0.011015706801538471,0.016422083376488067,0.012945940540541876,0.043097227716891374,-0.004168490990154993,-0.013913674593498043,-0.0287126594907063,-0.023159435395081824,0.00463338317058829,0.0012744466875053134,-0.016596262280297622,-0.011364113734258646,-0.06097571952893531,0.012775028017977677,0.017898589209599837,-0.008043404133503287,-0.03801191749127161,-0.027039327139690893,-0.024022068379811346,0.03495938497734369,0.026033701801663575,-0.013953132645442146,-0.004087751398988022,-0.04216421494760484,-0.0021370569461807553,0.018232009803465152,-0.02586952335034499,-0.09744640638890846,0.0975917502776468,0.01372458587098585,-0.04824875548298107,-0.0016406871369700063,-0.016357752090972042,-0.0385268175788542,0.02991964783739679,-0.009468726282787113,0.021218882040697766,-0.0075073862665570885,0.012486682001260303,-0.0016238437465468363,0.012590805715571685,0.03115041988366794,-0.010920456454601947,-0.02394707856491757,0.009509613088459417,-0.06837178460170387,-0.01423166332560854,0.018143016103727948,0.02326388846486482
-0.01920615499224159,0.011762789587776318,-0.05373882301718824,-0.004428950822356296,0.00505756697656869,0.00266236032842254,0.01003611235671087,0.06893587207511565,0.22147046732364675,-0.023034075999495404,0.03138732122301659,0.02540756539053875,0.03600792084348179,-0.020827699853781762,0.004940442633073976,0.06018554144044752,-0.047606197447103704,0.004450748489567568,0.01639828468716088,-0.1993247415056676,0.12121140412618492,0.0748363616541401,0.0026640443922216826,-0.07779433765413282,0.01522653287572184,-0.04415597819896895,-0.07874659957468115,0.1259353321544521,-0.06014434115134998,0.004658363877176299,0.10329388203622257,0.033946975879414025,0.049577666017954325,0.03082354093750823,0.037853767283915596,0.09578422215050592,0.017308641028267412,-0.043637239639369295,-0.018615386680185964,0.006195576417651442,-0.01783042687365224,0.014362454076585684,-0.03557268654188165,-0.11797927930257916,-0.023039107022712696,0.08443399859774864,-0.028674131161308493,0.01926116209417224,0.014689759362221097,-0.013454378087129374,-0.0186885888112142,0.032193836159775197,0.01707348563954935,0.048872005141383505,0.012193943364394283,-0.033731233083572947,-0.08366876839405583,0.026014956602421316,0.02678433319363349,-0.04890944615764751,-0.014096439571100171,0.006659775224000583,-0.008265911263815323,-0.17161487278465556,0.03392822467764792,-0.05316317625393163,0.003745368493565239,-5.373522266544369e-05,-0.028053225059426062,-0.05181206327491356,-0.0018872211667323637,-0.03268480938461406,0.02715084335839904,-0.05045105869712604,0.07439544803841978,-0.02316670887993787,0.003768008609165235,-0.01600261254358126,-0.02559736351458882,0.04886005026259954,-0.028436181991894034,-0.07639930135665322,0.02058282153337435,0.09852031334728158,-0.041755977117641244,0.044753307266391276,0.06956285522403345,-0.10988691034141836,0.06340585188143949,-0.04848081967315708,0.0579287333844596,-0.027099005443438552,-0.018886070959101057,-0.23332178017799526,-0.16774319145517205,0.024012636240083797,0.025678740618569305,0.04950199192066928,-0.09870335462789487,0.124486835959913
-0.03568102427045613,0.0449982326694327,-0.022698038020086967,0.024022209257051286,-0.021087239779376123,-0.015989697653285468,-0.04243880152175269,-0.03738696814011808,-0.02714330533316893,-0.029748186379524668,0.013838285100350418,0.004538489354717382,-0.05100181643135695,-0.0013316521595585996,0.09820045855335771,0.012263625957351539,-0.018790795606538988,0.11379314023201048,0.02715679641899375,0.01408199448496801,0.07504896008371788,-0.08731003433516932,0.07936326538916583,0.045892601895316194,0.09770630959851367,0.004027319312084262,-0.004545978264039267,-0.023017863199162332,0.003062305919841285,0.03955059728645876,0.005344058756738632,-0.07925895257960826,0.01922942194004541,-0.023555055428726487,-0.07176353802864104,0.015286463095870865,0.008259071801617487,0.07037303937822768,-0.029412978820070705,0.0004940722178472763,-0.01789758736190823,0.12806074078248494,0.026260597385412456,-0.04557305291089646,0.007719285181534645,0.06256270274603486,0.11621388580223388,0.004134330630538152,-0.02058428136250701,-0.014744567955987511,0.029150965321570386,-0.012265811365033933,-0.03382524504341651,0.045812424737110065,0.014731966751291474,0.02167106329180391,0.056345497853482154,-0.03306338851827355,-0.012700551603944505,-0.034925679435019195,-0.04807933048707882,0.01998004511193974,-0.05743959467815719,-0.009292995339956296,0.06715701747818126,-0.04689804527771567,0.0688354111728971,0.006538549016698793,-0.0536444275072349,0.026253085186602892,0.010509221464213306,5.698408679234158e-05,-0.03220047587057933,0.042205069406679556,0.009134567581781146,-0.02761869064277445,0.03352102564814368,-0.03280737486205868,-0.02719260770196136,-0.02357915242186791,0.01980135624085704,-0.0058197053812019004,-0.014193886958785599,-0.013153205768695587,-0.0910608293201576,0.10664739514011809,0.0659720249213802,-0.01979608946945034,0.027715142840918677,0.0006970500289025249,0.00652379790894264,0.059930222253269966,-0.009996840067762695,-0.026285094290780527,-0.048074930556815255,0.0466410466560511,0.01084320082271892,-0.04995378255513327,-0.05011743135987244,0.033139764024708564
-0.04207390881504375,0.0381250908366077,0.00375986869559215,0.022126895636754632,0.004126742973160094,0.024109022226203664,0.030608116479873947,0.021141883975368505,0.0268495290676392,-0.015334934782387871,-0.2678267544871477,-0.03313693544148743,-0.0979366097504031,-0.05095362644453926,0.005201177342928505,-0.023761222270687957,0.10942810294155207,-0.057998894770117396,-0.02077664840357172,-0.017087077896034447,0.043371677828786606,0.06055268817427518,-0.03393224430281058,0.023925646849665916,0.03698435679481851,0.018512560998950784,0.08167753962778782,0.1099002597273307,0.020041873453927484,0.05682202553228229,-0.09957959787742107,1.7006477300013647e-05,-0.028467152354958045,0.05580403814411179,-0.13770523274310628,0.02244229782280964,-0.06874272250214468,0.04349095945979368,-0.00806696863428443,-0.043443670477997826,0.15037880327159825,0.006582979419602517,0.015667634209916844,0.0015158689065140256,-0.01795189886273383,0.07150812676198703,-0.011002474682072598,0.008591876264940719,-0.06353051825256732,0.0064732604652617985,-0.09107569374520255,0.07193238511530639,-0.0201564274737694,-0.028389862137223613,-0.0065253314254949514,0.0001260705973990738,-0.0963992577836504,0.029663969425045664,-0.03874357574633466,-0.03594747448186267,-0.09417556562796155,-0.0120947573649855,0.04088155086541552,0.023475131957143736,-0.07492321348521205,-0.022087822022583768,0.01277852776453702,0.016963487560494508,-0.05307228303223704,0.05791132061190314,-0.01912372816163389,0.00043086928615462626,-0.007391498401062917,-0.056037592720521556,0.041973001064870584,0.07194420251076745,-0.028476633254698642,0.03953302193582389,0.049718686981172405,0.039951863617022104,0.02726435212145467,0.15462406292857928,-0.023664877417170403,-0.05848009139296522,0.017798549572521284,-0.09712997299346753,-0.08425824343955027,0.007725756409974432,0.06210842276788727,0.06673466517927992,-0.009532879733162586,0.04711095295194639,-0.03984233837722988,0.054988834476212126,0.019586372682213773,0.003786877062306554,-0.10240784073834681,-0.03974596391088388,-0.03357345052488419,-0.049871327705578
-0.019206154992241542,0.011762789587776448,-0.053738823017188325,-0.004428950822356432,0.005057566976568686,0.0026623603284226124,0.010036112356710874,0.06893587207511562,-0.01460017393938503,-0.03352518129868441,-0.0032400025079777966,-0.010407535955262233,0.03264454346878637,0.001315831417165659,0.002648072569445828,-0.003994784225276952,0.011615817303542782,-0.021735408150426263,0.033820196219187665,0.03397231102777015,-0.02330059395944308,0.11584688787683087,0.04304108986175012,-0.003546736227861079,-0.039001148121209056,-0.09061950137077454,0.010458957495962472,-0.001622727062336573,-0.010557398688849433,0.018979046030630373,0.034377244519503955,0.04945208529660145,0.04834241256275408,-0.03630802251951604,0.0009814730759828143,0.04593749862910632,0.004725789309528197,0.12622275269024347,0.03604476133542981,0.0020953461688044558,0.0056402415387501745,-0.0057164189578319,0.01936637655141339,0.06690835171669836,-0.04661548324866078,0.036237072909189476,0.007923702959272277,-0.019374103204171985,0.0058878908314306064,0.0386893461663789,0.03203594163046146,-0.021452007585368204,-0.07274125403912989,-0.05058714598906982,-0.013471959112040306,0.056689227923935874,0.033763076460628705,-0.06901366474771757,-0.015578025752362674,-0.04815541474563554,0.09750367336502828,0.06127829949852824,-0.0320054524475758,0.03622354189166043,-0.020999738125528297,0.08523882550452257,0.08604981205824958,-0.01612187439990707,0.07316114784807265,-0.052396576751066966,-0.03752165442989896,-0.03010144351881367,0.057237492732136436,-0.061167003200610685,-0.031162221229412822,0.08905999865752806,0.02643638966334927,-0.042932986012317646,0.01127489290123506,-0.021067782564015144,-0.035482912842490014,0.038912774975939625,0.0035298727149243735,0.02365704553394598,0.06442281593864947,0.021869066167718828,-0.02313075874288559,-0.013185962903419987,0.03513081839748659,-0.0438658497116766,-0.06656221702795002,0.0024771651426600443,0.03499485902279624,0.03849606481313501,-0.018390545778673016,0.05458559474228709,0.02314461343887351,0.03692945412906488,-0.057745389491196515,0.015271667087703186
-0.01920615499224158,0.011762789587776342,-0.05373882301718828,-0.004428950822356338,0.005057566976568685,0.0026623603284225373,0.010036112356710872,0.0689358720751158,0.003717627719367428,-0.013981430312713615,0.008650078834115966,0.004855409827298152,0.03075209738688613,-0.02136393908704086,0.18085896793944847,-0.025199195213004386,-0.0023739546654949896,-0.05053551265505783,0.04507979893849065,-0.0007382078358630401,-0.00384107947243426,0.0299336760521128,0.01796573566453469,0.018075878408746013,-0.0030545259081576916,0.02842797318721622,0.004016515717801518,0.03704272920549481,-0.022606213562377436,-0.01488034841144197,0.12601265768668657,-0.006755833006033722,-0.013698084134880125,-0.03778218752037406,-0.003203772386595369,-0.000670760595248996,-0.0281364225871969,-0.043058540288969015,-0.014761011412146498,0.0034045962185692076,0.07398595998873858,-0.25400309559417866,0.06452645226137237,0.0255114503641285,0.027992142069942983,0.013866302658860958,-0.004907196898275708,-0.008571282053519739,-0.10487332793688381,-0.18962210506094535,0.016292754489765277,0.02188403502121383,-0.04152329828771932,-0.0012277306655268684,-0.02307497258408751,0.0250720721435489,-0.0003899557579223379,-0.012893912178346834,0.00036065174338039226,-0.01755242343510205,-0.026757889076872876,0.02142278865302458,0.013375602591839796,-0.007172910504836809,-0.06644853578063654,-0.002364360358111024,-0.022758185272226485,-0.005361072368523577,0.007377423232247741,-0.03186266797278087,0.027879664815278305,-0.016014881314672685,0.015286463600774219,-0.011900745181225018,0.019612884256530724,0.028161314361683037,-0.04978976599993687,-0.009286272536917231,0.059686787137369295,-0.03951878434607134,0.05257254991993581,-0.0714344130446572,-0.017492556291745377,0.013328298798474747,-0.024974189788999623,0.033970047216820135,-0.03621367015322801,-0.038973069964040916,-0.021618975892162967,-0.033842685683034904,-0.03923264334274304,-0.03770260375877665,0.00205051990427272,-0.014341400616710928,-0.0256716180380341,-0.008600341908190264,-0.029750904925200782,0.02285968535867146,-0.03509109153323687,-0.021846039723190193
-0.019206154992241577,0.011762789587776238,-0.05373882301718833,-0.004428950822356365,0.005057566976568721,0.002662360328422477,0.010036112356710897,0.06893587207511563,0.005247378391177563,0.011191648033749356,-0.008487898186039636,0.03099222078888779,0.02066030380759752,0.027385873354917715,-0.023457131286558686,-0.053983808209725696,0.0909102511051778,-0.008032858280733971,0.03863349983589904,0.021189740510335456,-0.07530298574590365,-0.01578785458902227,-0.04932452886263136,0.01996090615623227,0.03456960833106076,-0.00015235188479930046,-0.042279281807373385,0.024543345241764398,0.03089862306458649,-0.019579998727286097,0.03891912317146341,0.028112941778029157,-0.006407907365736483,0.006412575688800236,0.03355287061459044,0.0663990063483321,0.00367661422854792,-0.025446181381087753,-0.0597802824429419,-0.016785537113115104,0.10178397155208176,0.01523195175559505,0.046829862281876244,-0.003893086881931342,-0.10163219163582868,0.01808904063523212,0.04631569948191071,0.012194700819581303,-0.0013585588168810645,0.05945390339205925,0.05641822739913956,0.016746476960331047,-0.0008523221256155964,-0.0551067330322533,0.04164067312928317,0.05149920180119781,0.09383936352154174,-0.03446592537403565,0.0073330138206011974,0.04845084705611756,0.06887649748658195,0.0035113611848525796,0.10584923872883277,-0.11598160207757607,-0.018507614012370048,-0.041748308637101814,-0.02815057431640296,0.02771621659909319,0.10372775119481739,-0.047887319016533356,-0.07647749425245483,-0.05507060179574674,-0.05781769543444586,0.052135339079562734,0.16270379348202035,0.019078525001059114,0.09522756133990283,-0.04309705095155603,-0.03757611470761896,0.05214379401084431,-0.01981946837550865,0.04009903320619375,-0.07249075300113965,-0.029332411730930152,0.02638009920950408,-0.047300006186095644,-0.027553384619560813,0.013615375047807722,0.09021286217782183,0.05824002222964701,0.05424329180371019,0.0504336467909073,-0.049669700172384805,-0.05824360849376797,-0.08553879804686351,0.012955680814240063,-0.057120436262226404,-0.07383777829762622,-0.006127231016214327,-0.006773127026958616
-0.017746166183352886,0.01287359752439384,-0.0722287621233807,-0.006660274478211849,0.005581086692801599,4.561323069393165e-05,0.012741960630718308,-0.023307353977474875,-0.04044804931770789,-0.017904022265588505,-0.015911404948970583,0.01959941382661694,0.1497208908165875,0.08030916374334476,0.007881825392066735,-0.0006481162620645055,0.02909174273566184,0.0036765801363202386,0.003953834455816667,0.011630682217196639,0.006886287049529865,-0.05106430189521344,0.09887521225152521,-0.040761924894850206,-0.024873742292844267,0.010451937499421976,0.02856107174598115,0.03893116579389216,0.039798886831101304,-0.014029144955584485,0.011813493128531014,0.010976159133535132,-0.09430973240386079,-0.049565729771743575,-0.0023380046614916057,0.06094396098717006,-0.059769672889290214,-0.06225889361437352,0.017276334809294892,-0.010723200508391501,-0.024671417896157812,-0.006977270140215402,-0.011107935090524755,-0.05187118163517958,-0.02036438371974767,-0.11866728609483762,-0.06486224069074666,-0.045901310116849774,-0.020754766887671784,-0.0016388576307183004,0.013486145865651123,0.04821796564016789,-0.0664689973790385,0.0484759128239879,-0.09112454619079582,-0.05970241076063685,0.08949645806722809,-0.023830351840476705,0.04220038250475622,0.025759427428015784,-0.013222285897840096,0.11264103069788309,-0.066823763942209,0.08921799764850966,-0.06375356751188875,0.1348541009341003,0.01062091336369877,-0.11764243262785332,-0.10735183541530997,-0.013948226158501572,-0.014790592569182488,-0.1725778848161062,0.03405154485875045,0.028757609201349232,-0.0669970074556562,-0.020572089921145897,0.04985838545560682,0.025972098898300565,-0.04614506142211938,-0.05938866422053908,0.03932611503260647,0.01887850454999638,0.06585396736342261,-0.03883458477976671,-0.10468061587324608,0.05421000535461696,0.013080416055524869,0.09967145596114202,0.05476292220642851,0.028164555841836438,0.04805232920068762,0.12414001962723713,-0.02806728961807264,0.03565494798336336,-0.049228044672709435,-0.05465985971300295,-0.05967183373477762,-0.028598871154051943,-0.0582601594872596,0.0017368943488400874
-0.04029533747604216,0.04215423094006058,0.05905608031923659,0.035721106725068744,0.0007785289045021219,0.03143294587942919,0.03325030108782215,-0.0390367330230309,0.006939261974972265,-0.05047242478763634,-0.029629443306157004,-0.1110904499793596,-0.072599219655096,-0.0009088320535827018,-0.0032554646380165714,0.016821223891200093,-0.049465335254919876,-0.028239816852279366,-0.05042229997667751,0.018692690494254274,0.02462404278118711,-0.04802657828862645,-0.023174270707871387,0.008977247103222574,0.06480269096819788,-0.004544428177472022,0.008136339363977412,0.03249705911228107,0.005103116677850816,-0.00802797622541714,-0.008358274253312105,-0.011951727744147772,0.010376197222481377,0.033594241530539595,0.07001455619057688,-0.05281626964059767,0.000293681946851043,0.010406402302487865,-0.012407078654129058,0.07938968011631359,-0.05660341156318253,-0.04554159026262718,0.0338653168468429,-0.10108161442294238,0.05454116852936944,0.0755166531187639,0.14368460192842822,0.07587002363321421,-0.042804897274119014,-0.017607195199184043,-0.03243486387679237,-0.019203537716013092,-0.047853911343368,-0.007651767129820997,0.0032102350853906014,-0.010237683515443595,-0.03201505720899178,-0.02593734993680166,0.08890978330828386,0.02035341409682297,-0.06931338505615972,-0.008652489311830809,0.04274154696185793,-0.040272392972843275,0.011836931056333306,-0.053965460604078086,-0.052186485307223356,-0.094289178692366,-0.030146671488859262,-0.08433456692743056,0.01909142243676078,0.01994365246007906,0.003483791400103485,-0.07185291081153602,0.0017716865385353647,0.07663721489532106,0.025111440310800853,0.01937770426101317,-0.02641384786158692,-0.04554849403792667,0.07492110609143407,0.08011427646171393,-0.008307393034378408,0.021099211312025867,-0.03870747992724768,0.009414285655921778,-0.06496855073744967,-0.08216905312082828,-0.02277190017276347,0.04747006937919831,-0.05606019464634433,-0.04284842339057888,0.08404282667848723,0.017441912202100902,0.06476785776205748,0.0038209243280104103,-0.060521116064298115,-0.008244921836784012,0.035381020857388444,0.016922928307026176
-0.04207390881504374,0.03812509083660772,0.003759868695592095,0.02212689563675463,0.004126742973160049,0.024109022226203685,0.03060811647987387,0.021141883975368352,0.04423229545945751,-0.022628057022901302,0.03875959767416243,0.08024352044028778,-0.006506259076237213,0.007150684643947737,0.003064233718558506,0.003230228056413114,0.01876196464457345,0.0008704506755881314,0.03731451226667783,0.024522881033170085,0.018820951289584255,0.004442752142872,-0.01143232358756145,0.0957431213308971,0.034588035310102766,0.013881844152861,0.02686112743687087,-0.037153751416917194,0.04102256839512182,0.019372648881713084,0.018454377391860698,-0.025240592611418252,0.016396436503069472,0.07382997685528163,-0.000625309485292362,0.03758186810346313,-0.034977219341973134,-0.03148529464459325,0.059713651548863385,-0.014731433868308977,0.011111811536877628,0.0012564745949224221,-0.042703835860393655,0.04255006711390528,0.03588009385896043,-0.005620008916352334,-0.004994072194254389,0.01460227608367782,0.00596391897132779,-0.018167514741589123,0.010907236393910055,-0.11535468716564065,0.09418129974470217,-0.08438053814267643,-0.005633530372267511,-0.02202847678581862,0.11909806442115743,-0.10449866897448835,-0.019021935890468793,0.0017305281768250564,-0.003262970771546538,-0.017037923109753318,0.01084739776660324,0.10566249729166341,-0.00961801997082528,-0.023752527921350523,-0.009265323537911771,-0.005904616750485408,-0.03453846693266748,-0.026541296253165172,-0.04177767740136665,0.046572739083700486,-0.003620945521179586,-0.060766539242921504,0.005264868501206229,-0.008884688413410724,-0.037550702212409144,-0.09200852540719225,-0.10242913929385669,-0.11308897964682155,-0.006907015629435637,-0.03414316606976733,-0.041707923494509844,0.0470923024473845,-0.012729740214784086,0.0685182677642984,0.030889142858065946,-0.13910715226482992,-0.014919665442770623,-0.040738858633619354,0.05411216878610752,0.10333747553201192,-0.05204121376437666,-0.08104243156373986,0.05566565447328676,0.0071525620153634105,0.011266067243674334,0.022532165177560307,0.0402258055457995,-0.09099939584788962
-0.03568102427045612,0.04499823266943268,-0.022698038020086964,0.02402220925705128,-0.02108723977937616,-0.015989697653285475,-0.04243880152175264,-0.03738696814011793,0.014792717427622228,-0.01131429804897723,0.01709155926357965,0.020503752699296933,0.03610890015068111,-0.04515705287508367,0.19519546812332486,0.03733557376821185,0.0057308084117655795,-0.06276964714227412,-0.055409083299891713,-0.010953145479595455,-0.04182260750609662,0.054647775487288365,-0.06808560670450037,-0.04379106827643167,-0.04707764950818106,0.032083711831556574,0.016956092417391357,-0.04081370302238483,0.03613447252655163,0.12337415438274058,-0.027135317383272423,0.033608704378150285,0.010841708339871074,-0.016952505652113287,-0.058615597499853296,0.011879891615101319,0.07727236777670962,-0.034700004932172464,-0.01213699851672108,0.020580468354933355,-0.021776567743800712,0.17293566272710004,-0.01663326239260871,-0.0241433200962992,0.056531138573533875,0.025362794354545876,-0.05974021723179104,-0.04880234815657567,0.10335638376114088,-0.06954953598345116,0.04584978353850561,0.02800709352382234,0.029203293471214194,-0.005767198380533723,-0.008859190739976604,-0.01306609414223349,-0.03589167883310257,-0.007789388836609029,0.0144935385796627,-0.10401570116107883,-0.013820148680414632,0.012337948099805419,0.054699358246171524,0.01764682840954258,-0.05582692630101603,0.0071693462334052795,-0.020495328845833556,-0.005364277213184888,0.017531896049094074,0.011175323710320411,-0.017493405079373144,0.0026688487969832144,-0.016331674689983616,-0.01022825039636753,0.04182941012644389,0.035343091697013385,0.09232572039536621,0.014203920023521185,0.048480834672936866,0.06261995746793146,-0.003199986696514607,0.085843559683489,-0.003727493438188264,0.01543675064152148,0.007284228660779727,-0.02334249904125057,0.06142727914131164,0.03705941842485936,-0.1286568711665191,0.0665508611167371,0.03343458096837751,0.036741593434478234,-0.038578367845599204,0.0071973629601410115,0.06856449082597248,-5.709042132832168e-05,-0.06667279949640376,-0.0065197329186233695,0.013491265151067825,-0.08904051868445222
-0.00831887144772356,0.008128476317163865,-0.031228763716163073,0.007071024499468574,0.0022936919681409507,0.00177034246182363,0.01065218158267328,0.04667457407730275,-0.03955199381267897,0.0019579843936777972,0.018151855166031895,0.04099335038711255,0.03660557116395877,-0.026787898132597757,-0.6453043427534069,0.08314226694996116,-0.014167393851536732,-0.0020196194218440847,-0.09860074745038752,0.03606529282756884,0.018929164626014683,0.00900311693603325,-0.03399162362629783,0.03356387918614934,0.0102738102310406,0.018489801737585906,0.027270467549143185,0.013359414962284336,0.039708420851477175,0.06740056390911267,-0.035612941317209934,0.12399617760425846,0.004145802464160645,0.04501727671183581,-0.059310008397475376,-0.009241835837514508,0.043331581902593085,-0.02302363511198639,-0.014391164223966612,0.01721666170888582,-0.12015482078090124,-0.3705736980964613,-0.11676070545871955,0.04453351087038595,0.020512573830194898,0.07322078970803872,-0.005272352272710731,-0.033903420332572855,0.0624573878408649,0.05599756929885336,-0.008237582072496608,0.005500171234849847,-0.005949372704821033,0.02385625871562685,-0.017723917401798527,-0.0020228812587057,0.010431174524698225,0.01158137995076477,0.10791222547414052,-0.0068265657345567094,-0.025950954636871644,0.002977498368929632,-0.0069201672490467655,-0.03426738838771276,-0.10333566217916608,0.010120408194222276,0.06388669867397016,0.0109400123506673,-0.06156487901538066,-0.020813348868901294,-0.00025731143235866485,-0.04870443575056041,-0.021722353755283353,-0.03607987325483797,0.010485630616940217,-0.013207349995400644,-0.017091155853426136,0.019931906107470556,0.0009409983652796704,0.01009077936728549,-0.0136486456485267,-0.03340077351535002,0.01252799695139325,0.02236674218642575,-0.022768020411835566,-0.043028686240750263,0.04069640793345669,-0.030492943169186274,0.0011806436224574184,0.024986184881383794,-0.0019754341408043646,0.07169019714225215,-0.001278047487143741,-0.04795665450745469,-0.0025470244026036394,-0.009545025009664306,-0.01937630916406039,-0.05504519030810785,-0.006570776322622466,-0.0012519415822372496
-0.03456944038171721,0.03891260560682608,-0.02070914043861589,0.019843139784033938,-0.016310414941341993,-0.01090806016964075,-0.03381325931626916,0.03921607928793597,-0.007694482667724137,-0.04161641513439737,-0.012811521519238915,0.042565385407085266,0.005085329597711008,0.013554386659559874,-0.01921987051081072,-0.019150953487871554,0.017117072473348264,-0.04787131760880551,0.004432147505187629,0.029370519567204288,-0.012301845320903696,0.06768578141601865,-0.06609208686065839,0.17651338136634376,-0.27591194567670063,-0.12991922922785815,-0.011084675245189008,0.011931814903898231,0.0645707502302724,0.0014476688009036824,-0.013518941977190226,-0.01585054925838648,0.006351567345711335,-0.06544674026195371,0.021032219314790535,-0.06865223489984205,0.025671879174838607,0.029815984170809315,0.06909984501020051,0.03978030994861023,-0.013302051557904903,0.015540268980066899,-0.011660407841636746,-0.041525159176138186,0.03324825221275293,-0.034547823186044574,-0.0015423186301677114,0.002762428299600304,-0.011186864080614669,0.005059386154571749,0.04347009297533318,-0.06882394294927499,-0.11410956041947966,0.0798009053839827,-0.0703893395722522,0.030601843589298332,-0.0397506240734021,0.09772210323031127,0.004970711521096782,0.0911468726886553,0.135119059090899,-0.10171489584168933,-0.04154821728954957,0.06612385244846676,0.06679428026527824,-0.038305620128559675,-0.026243378943191877,0.04283930852896245,-0.005586800727038631,0.03262047161815825,0.05201262530844818,-0.010254600481047461,-0.020732779686705907,-0.10603200347439044,0.042209542318883304,-0.05175863345012697,-0.0038581304976366983,0.07554123129843547,0.07035580518093959,-0.049954145980529094,-0.03233181087388493,0.0030955423562317617,0.015983599582936964,-0.1383815139709481,-0.1241728700253031,-0.07527942917104231,0.06367704717752075,0.019523987449035093,-0.02324503944303662,-0.00616176218005134,-0.06518709848797684,0.0052783092750517974,0.02388226736860544,0.02076624912900341,0.008017592263006117,-0.05907598575677738,0.025883531336918522,-0.07826256026223151,-0.06538854823217334,-0.08560264065681657
-0.017746166183352858,0.01287359752439395,-0.07222876212338049,-0.006660274478212001,0.005581086692801599,4.561323069356809e-05,0.012741960630718013,-0.023307353977474937,0.047682892375722014,0.033140618128437126,0.01594923345203234,-0.06471154813188267,-0.005143154287135111,-0.024435441289257193,-0.008923316607854167,0.00873462577022217,-0.11945802222990644,-0.061985569801640515,-0.05374771537838898,0.03334369206653242,-0.011992569473037245,0.05347833582056289,0.1796979079234846,-0.0001492261614577147,0.019566169871167747,0.12516071276224874,0.013737783903182888,0.03958681411199918,0.1513432984604438,0.0931682254958833,-0.06085077675374343,0.09800011708299305,-0.006638724522510806,-0.020619033889671966,0.02422522970581147,0.047504165742404035,-0.012059966595166146,-0.011637114626397847,0.002584352697531486,-0.032780500819297814,-0.13377681953513157,0.051680285736456714,-0.025900709478877453,0.0421182425114165,-0.01439295008407455,0.0123899150078017,0.06817057926466831,0.00830457093591894,-0.160532108805065,0.14067961967177484,0.06731986116305437,-0.004942084599412055,-0.03278580757323441,0.01692997932852091,-0.052099839233261246,0.033319355168159794,0.015868891930683828,-0.04493387382358522,-0.0025870618674139487,0.001983375289001223,-0.046922965996388954,0.02904719401196162,-0.013243931134907105,-0.011325119107584053,0.1083503200385434,0.06318826204704821,-0.05818222445981195,0.01027788398802751,-0.020656437284388804,-0.002074186879778048,0.08002456496541972,0.07200081127598307,0.055666682191162484,-0.008487720210961357,0.020582402923409272,0.022212981197879463,0.0870138939406394,-0.012670052894725989,0.03606188508794873,-0.07645650150428655,-0.027076017520739758,-0.030448523922673023,-0.09548246976126151,0.034821340517770395,0.07791758758966733,-0.0910581465395168,-0.01058183865706436,-0.015730747614124872,0.04994596153687444,0.01885023768677361,0.024236063251798425,0.09522326730361337,-0.053287837566778275,0.010787232561988084,-0.01436008331222141,0.003909769565781043,-0.08819414549997114,0.01617886650440432,-0.011827995823796166,-0.09229873747639475
-0.03513593817664914,-0.015193181913884317,-0.02692741148725074,-0.07217374704465504,0.010245067897195372,0.00400987935182043,-0.025177827493930143,0.04507994096677306,-0.015923056588195397,-0.017805772925614347,0.25205580738126615,-0.034639108453630885,-0.012618836003579896,0.0133313742001263,-0.01883967976835421,-0.054832252152203546,0.09436629905526024,-0.00805079634120767,0.02052251897607812,0.01787918459527629,-0.027465056633329096,0.016477761906956743,0.012397840388190902,0.015154792845535921,0.015981135600576082,-0.01372727199415962,0.0193607824816011,0.08669883314595321,0.014688482980702218,0.05541133607331086,0.03166244836922645,-0.017378264806183746,-0.05328877189116338,0.037801933194339964,0.08242427027679816,6.895375613069533e-05,-0.00434987392525488,0.02691123432705811,0.01133380188578559,-0.006807537072742343,0.16433052420636715,0.04524297090493108,-0.12085072429530616,-0.015272578704786951,-0.0028967969848191786,-0.02794747257170673,0.058290994199596435,0.005443338789942267,-0.01416597974142608,0.01596185216505708,-0.05924497698546472,0.013323452512566104,-0.049244345186310705,0.009335352600655752,0.016052557189983132,-0.012129041046072098,-0.10828776369529318,0.013920573379937486,-0.038582763110590335,0.008606747175587185,0.0033288417864070757,-0.0055969349393013065,-0.030382995600490667,-0.0017679716195898218,0.006894743201120628,-0.0018208102994256604,0.0008225224267828593,-0.031313192434600914,0.03639901706351227,-0.03321930125465811,-0.016087912914957037,0.0024383791457959544,-0.0001995803155216513,-2.4502950970736736e-06,0.014364528983884437,-0.003718830690997797,0.028564789839570975,0.03309519144298432,-0.008617006305569464,-0.003693876024943678,0.044113769621942286,0.04187012144883975,-0.009617212359600422,-0.03247502142972788,-0.0017076088490542041,-0.02593576647598112,-0.08032141831333926,-0.07182052424382572,0.08999162921764878,-0.0010091972263720247,0.014570074975840178,0.018957082134725602,-0.06657997733614544,-0.018825097594868643,0.02664114592330823,-0.037867818964179886,-0.0952072431524351,-0.03423867419657735,0.014968766268525353,-0.08459396504305794
-0.01774616618335289,0.012873597524393855,-0.07222876212338061,-0.006660274478211784,0.005581086692801602,4.561323069386717e-05,0.012741960630718275,-0.02330735397747491,0.166315957078153,-0.017409644125539324,-0.0045559609957544,0.008553267520691181,0.036858941971483226,-0.02918572132078358,-0.00904907890347245,0.003455464740758476,0.028807019697778255,0.008355945094909048,0.025129683433773215,0.009596943789175126,-0.007083497770716552,-0.02731128024584475,-0.05850766672160168,0.0007161650695095985,-0.14326640138787397,0.10724326583734592,0.05647303401927123,0.006127720717468492,0.009140364907017532,-0.007659990826897676,-4.864197647835552e-05,-0.04198652935154617,-0.1487451625214159,-0.10298217006094203,0.010587084734566155,-0.0024924924944679573,-0.03119182230600949,-0.01154899875797724,0.008332406662723854,0.020569516413317758,0.003137747467042088,0.038915739839635664,-0.015086762188385769,-0.022030151158752998,-0.0374973065228405,0.08478539704586623,0.19864335651009282,-0.013338533189964957,0.008255645388540315,-0.011635762280159712,-0.00550485088933376,-0.11793471632686442,-0.0944939972430698,-0.057112205392351637,-0.025441490664484354,0.029591974823806082,-0.07773123279227336,-0.08591374683109775,0.010859759658328175,-0.01522200656434792,-0.019346124155728967,0.1255753400690176,-0.02821274641324126,-0.002500510429822199,-0.03295535923577326,0.033883077930720006,0.020090999682102643,0.05396756703608195,-0.023232250306080733,-0.11898805450422197,0.08530957858869649,-0.02289704655122578,0.05341560899590428,-0.05042964670455248,-0.008365090927524667,-0.050710249476691546,-0.11479658030845695,0.007701806701192887,0.031153432412919364,0.11508904556452765,0.03127332887150258,-0.06042042901575186,0.025591851513205505,-0.03468979722784784,0.09205445646625392,0.09286719504432696,-0.054150946977805224,0.0009138390182521864,0.04661161431036332,-0.013452872987269323,-0.03551337191438114,0.022203884036889547,0.07443279760832977,0.008059420886408758,-0.027376390812360533,-0.033269571724073105,0.0084120085187963,0.08460322317888769,0.00484726203835266,-0.04527140433039283
-0.04805771334322007,-0.0816720307855281,-0.03238633868021062,0.0185914820296244,0.04836010385249973,0.014277288776348802,-0.065324901898352,0.03042363485228916,0.07398042139179704,-0.0068547749797765855,0.023856798428267097,0.033882741302176306,-0.07859243517396844,-0.07269034922639234,-0.002869032635113159,-0.0032298402151447886,-0.0044453628516455,-0.019089290295579858,0.020106410552014408,-0.10384925697865335,0.018226029443074707,0.03414608892472375,0.0727133931206863,-0.088507635464427,-0.08718997673687573,0.10171726846680064,-0.010667565545593763,-0.011072435603829915,-0.010945720006467236,-0.007403988301262856,0.003678994089214178,0.032327689816636,0.012814002129757442,0.07199269000022511,0.015724578302650175,-0.0037203995981868404,-0.02127506835468244,0.0018853619051598935,0.04031300029099317,-0.007748286596772486,-0.008392223424474042,0.024353216847286172,-0.0073317977975806995,-0.015518072062485608,-0.027733248839560957,-0.022242920060708105,-0.048169370947042496,0.06163312220565615,0.018183043369344197,0.017645794368987822,0.020118584868106283,-0.026170661384582093,0.0006265896551371296,0.0007943273444347694,0.007459873847600536,-0.009009492490842541,-0.009463014300130515,-0.04290494164058364,-0.003714450238965982,-0.007359395331611619,-0.019306577753344066,-0.030286740982425564,-0.06915856556966449,0.07420441153279915,0.0011862283818951744,-0.008999690545375976,0.07390028009221121,-0.08566828696707192,0.07155915011296182,-0.06816664203485467,-0.07783986695357825,-0.031194148652921173,0.008632616279820428,0.00796940028422606,-0.048141086622278506,0.02569740030748981,-0.036124018622132235,-0.10976518581595478,-0.07613597367728142,-0.028407337981729612,-0.06951263257615958,-0.014894679729581077,0.07637719118818259,-0.09462933614353351,-0.09075290633039192,-0.009294682733677269,-0.005609002182892106,0.05834117536656199,0.02110983550045391,-0.05034477111830949,0.02649573469962971,0.0027355970695961437,-0.02710540823313129,-0.010372765358058898,0.011437269106022583,-0.07366879105305942,-0.0481235241144763,-0.10445548926546494,0.009966738342003373,0.05930352748188016
-0.017746166183352872,0.01287359752439393,-0.07222876212338045,-0.00666027447821191,0.005581086692801598,4.561323069354896e-05,0.012741960630718016,-0.02330735397747496,0.059326905878808525,0.04876387572950266,0.05862763445834931,0.12781905613236444,0.05736525085089264,0.05264416947066391,-0.018038689761747335,-0.08711891984564918,0.13168210723453458,0.052988613596271286,0.024871021610010462,-0.047475515593630495,0.05144434280880965,-0.016252320041986634,-0.08094814196156298,-0.01855786468755854,-0.04135443099895032,-0.030088847178918847,-0.010228726284911064,0.015676713921038844,0.01808465993839839,0.06290622571762897,-0.03244690133137993,0.11945615055243373,-0.019922084873263378,-0.12499195066869583,0.033875922295309766,0.03377620511474984,-0.03868518312778252,-0.021828511991673866,-0.016671054733258032,0.04339007840046159,0.03067898885398511,-0.009486903793638174,-0.0015731353229837036,0.14710507457780353,0.042431227065093474,-0.07355184061295135,-0.02119289481132979,0.021827172949666535,-0.06558461597667828,0.015103069922453924,0.08130071180923788,-0.1429808900016563,-0.012598467827145694,0.025333641405367792,0.11731213386487474,0.011558955853270679,-0.021691223843254375,0.011629294469740255,0.1200711720288585,-0.02898816024451294,-0.04649638015948262,0.056947756905973285,0.027454300801496134,0.022512224035201527,-0.08955578799100386,-0.020991456262611858,-0.01690149297512771,0.0037312188612922998,-0.008870307910461622,0.0910960299473579,-0.07328513105525132,0.03679273022354721,-0.04664281605028824,-0.08464681604260776,0.07459473710741216,0.05567362321661414,0.19417380174490753,-0.12316452271775671,-0.09241908750335366,-0.03787117555989139,0.03151537623408755,-0.061389512351281574,-0.03560443261609413,0.08722694371817222,0.027637372539234754,-0.03176868584417949,0.04039181625984937,0.019655508981630675,0.04472313168078119,0.02816512319809328,-0.019744290342813994,-0.05925165318196663,-0.049187761333289684,-0.007565090970960344,0.06911264635270789,0.0063494400055564325,-0.04474731064494976,0.05821645901958596,-0.07238008735977201,-0.023196421425343908
-0.017746166183352875,0.012873597524393909,-0.07222876212338056,-0.006660274478211872,0.005581086692801596,4.561323069367607e-05,0.012741960630718155,-0.02330735397747495,0.0071855135125772395,0.033367824627615804,-0.007302799515840903,0.07378456701436964,-0.10018962148625916,-0.03020024711135639,-0.0034056134357581375,0.02783517157021475,0.09943013284246273,0.0009292379796474066,0.06846880101511328,0.0565182724380173,0.04764901692257096,0.05508189626039474,-0.011122611425428376,-0.06986353323557119,-0.02251658242450956,-0.02496164722100847,-0.03227195857263369,-0.05560047779745053,-0.09250604091973005,0.11232181954970513,0.055853256788062314,-0.01757754017439751,-0.0212577068681005,-0.07374336684765397,-0.013430809494741014,-0.03397402884783261,0.004417109551880485,0.053469537934954826,-0.011686274554236374,-0.005125852480858293,-0.011202125697745313,0.013327523693549758,0.019712863806118287,-0.03123127607960427,0.08150320128649385,-0.05106351819310281,-0.017626883383729013,-0.01546121283090112,0.03820898699218797,0.0009858250694676082,0.05440568161255122,-0.011838965436949301,0.01815978526032159,-0.07548986620382107,0.045988236911859756,-0.10750601447257455,-0.0011181368200091312,-0.05175929591179833,0.03292170517049629,0.043554412716358765,-0.01589075120893688,0.06893192288574966,-0.010270115931592817,-0.0070109861979209525,-0.010470993579627655,0.007016257566156903,-0.028319498745215364,-0.030001269416894485,0.06327280528869578,-0.1060182266515243,-0.007757413296414617,0.037784531981497955,-0.02099988738996312,0.03262597792600784,-0.023261040141319075,-0.04574043375349685,-0.11341791282942038,-0.013093073149071863,-0.03861868164419729,0.24298611360808411,-0.04896380597769096,-0.036215383711106504,-0.03680385550842082,0.03730216941283117,0.04062401848552691,-0.07046300863400025,-0.020401372943855182,0.010263834755185462,0.026613891360221163,-0.011485718522858599,0.007811051045271011,0.08722074155266357,-0.04294331818575823,0.008741658275558024,-0.11073185693678125,-0.02975972337432343,-0.07554673350039254,0.11570869630157722,-0.049932297475577786,-0.037277790659746714
-0.017746166183352882,0.012873597524393852,-0.0722287621233807,-0.006660274478211824,0.005581086692801601,4.5613230693929446e-05,0.012741960630718318,-0.02330735397747481,-0.008234602276772448,0.0007172507307556717,0.02128031438714187,0.0006825119127954513,-0.04219948710396956,0.033920430825588516,-0.016571635485875414,-0.010699954183344898,-0.05584565782652643,-0.045965600460004,0.10823324777333236,0.03694174162430114,0.04446454818549606,-0.025976631613683934,-0.0864728424890263,0.07496568302690251,-0.059279976320995145,-0.035844233560385345,-0.04459877879251287,0.035706609659836505,-0.049179961052252814,-0.06811771503837918,0.0972537615467413,-0.006696751600700665,0.02158034408476159,-0.015200733370455782,-0.010731937427240932,-0.048918345075111225,0.046104971729937556,-0.012659271237567523,0.03478311117170928,0.012958729428746726,-0.020119317390053588,0.0194020245103049,-0.05409586074815812,-0.021446347892762483,0.10521753019595197,-0.018447759876359427,0.009468759372269804,0.0859799826958108,0.037044031120314715,0.021697222261628298,0.016582319587523153,0.04930348170473692,0.0274770780980196,0.05368723213433126,-0.04403815032470675,-0.030863685136714437,0.06621020711929347,0.08545048036112135,-0.07635334378275746,0.03938190274214586,-0.001507387942548035,-0.037863318201193145,-0.07320499170816801,-0.1150274173932244,0.06731629766129729,0.07020052483378827,-0.07076100017678036,-0.09469687181965923,-0.029062454713962637,0.061048886482966545,0.07401595477954478,0.013718621748580798,-0.12539748514167004,-0.019966991498611114,0.07085283328256937,0.054784481641712075,0.009360391952786155,0.0016720169109074835,-0.08054931685736533,0.0339310776431383,0.06092378066761003,0.015082415063360567,0.027646991981153227,-0.051952966830281076,0.04344287101009185,-0.032433704722545434,0.03902959267204152,-0.010578231399810028,-0.03957291523027986,0.0004979412546677948,-0.004095884540441963,-0.0007560039274372918,0.02829733983513441,0.01277347233252886,-0.05027234654122885,0.0538011897795868,-0.04933784879206519,-0.06677589366906028,0.04350180308532705,-0.06764059410661777
-0.03637483953945351,-0.021267553109160328,-0.03031383359582535,-0.08867500096780587,0.01143645163444997,0.0022809722673537867,-0.03186260068509119,-0.030205233622412238,-0.011320038490966959,-0.006261237360257245,0.011672967833435691,-0.0449951145105742,0.002491510822539195,0.037873233680274405,0.025370529137244115,-0.002241966625079461,-0.027695208071868368,0.10658835957807941,-0.03578691546868695,0.007179318804846235,0.08672879066792397,0.03891349712141762,-0.0074893183541911695,0.07088595166284335,0.12375377020681907,-0.055850720234208465,0.024869199558118456,-0.02710321872076096,-0.002749121965902352,0.008290524844675897,0.07007721744632392,0.014419974607110163,-0.0735986588656878,-0.02490187265826054,-0.00950131683717127,-0.028191322415340187,0.07894999764697794,0.030745563550565756,0.0069039683100181595,-0.0332450624093648,0.06838606384962033,-0.09332426038051647,0.015484026442142283,0.029158823250932695,0.036618010063796655,-0.020649257963813523,0.027384255187049393,0.026231008558747996,0.017777434434553884,-0.04595273656767801,0.06771691607007853,-0.03589764320793007,0.013253495243251373,0.004966468062933435,-0.003927945314741607,0.04557154846504547,0.033253133339519556,-0.0465510484487438,0.04420647082465264,-0.04710352144602643,-0.013955314173348238,0.0054967623332566225,0.015990704497389506,0.01233749892564805,-0.017646114965793096,0.0065788158226330416,0.02213895563573763,0.020163773136777734,-0.009151035595899491,0.042169617363056376,0.0157281732300956,0.009013858323443402,-0.06541981585774392,0.02247157283275839,0.012382406228435434,0.06326701824401179,-0.02065998533358619,0.05026211876617723,-0.033776481691882285,0.017326173024447434,0.029489746330232835,-0.08577764006147354,-0.022079213535238656,0.040868715749303196,-0.03661898350496254,0.03554620503349315,-0.02597237533469251,-0.06196577007515545,-0.016884483852274583,0.02954798069289583,-0.02480156604018063,-0.03457561890676751,0.015579824668030453,-0.04015312172323641,0.11078591402317302,0.07000307091197819,0.04625509901326228,0.002821724743905778,0.03539717837040307,0.03943011058986543
-0.030556430172774988,-0.0474647469629664,-0.014660723317736442,-0.03945801435282089,-0.12710037059195467,-0.0037207466194792206,0.03760297303315287,0.026576017530057613,-0.0075104453194165,-0.018111353449006093,-0.06863955733509768,-0.006983460750914236,-0.07853597855095153,0.01499895314404981,0.1330733816449663,0.05963349278895452,0.03667180276560133,0.05046308156780955,-0.08143300669070883,0.045233111779842385,-0.007215104164156499,0.06973505994729846,0.05158811430242577,-0.030706162582243138,-0.04927323643295355,0.03412011833572628,0.04166171135707378,-0.10992073677983322,0.03462051386723179,-0.227493571229904,-0.11276789968910739,0.20380047600543433,0.14029465779020514,0.009560012524790655,0.05076614943766128,-0.01857374120509135,-0.0044730041841199615,-0.008784215576938216,0.04331228068240422,0.003926313868907481,-0.07777064234309966,0.08156377636106756,-0.21531901295496478,-0.000135619339975228,-0.024662031948434443,0.025288451777042687,0.010712928562147632,-0.007094322391718152,0.14692241682664298,-0.1886120584272128,-0.020330689783717083,-0.06755223128209038,0.060178218165206986,-0.07437190563276362,-0.01618691629500253,-0.07571761022066736,0.014307549334645281,-0.07514467403374739,0.030843388623611658,0.05839871979130469,0.016844544131753368,0.058725996629584776,-0.03182498837683253,-0.04158377065902995,-0.10737207277504003,0.02449437244052269,0.030982505823958915,0.03014781108943176,-0.07961892311636967,-0.02858676273314948,0.046752874650011385,0.0849331862588393,-0.008911613188164235,-0.01883957675819146,-0.02352183425107347,-0.024563733760853024,-0.06455089029421017,0.06087100843094814,-0.026095419279883868,0.017418332566264266,0.0007950715204015147,0.0168762265271211,0.008464306901226407,0.022505089620753125,0.05332854448563535,-0.053696017085708835,-0.018280558443608274,-0.038435062767831756,0.140654439537447,0.04569250980771513,-0.027136722275571006,-0.047545608037568125,-0.03996317599761393,0.005739220098422263,0.07374967806853715,-0.008038527754831807,-0.0006958737701439722,-0.12764312541714729,-0.0464835914586799,0.042781508153248604
-0.01920615499224156,0.011762789587776268,-0.053738823017188325,-0.00442895082235632,0.005057566976568722,0.002662360328422443,0.010036112356710909,0.06893587207511569,0.050783051447352595,0.013962518446315148,0.0119439297098966,-0.021763952600318215,0.004342883047440143,0.0017356071903617265,-0.10519303144335826,-0.04827541686726052,-0.01943731692075675,0.004281610612418667,-0.028622036850221643,0.037924006010029356,0.002315456451501027,-0.029166805861732027,0.031181245228346897,-0.02171521888735077,0.0005028366673465163,0.00453599666563696,-0.021880232863960684,0.003139312090897884,0.014113123384161602,-0.024994848687630154,0.030699228251042487,0.052182401783184035,0.027773312482909804,0.0008587533007910148,0.030802611816673087,-0.004501158222823077,-0.053310791767253146,-0.07330351772050268,0.009547905987997225,-0.012358442575778126,0.046429653758251706,0.0871033006804116,0.21810156838325095,-0.03200197652636206,0.036513189394735135,0.01280538965518124,-0.028168492256277,-0.0067981430164694365,-0.08332840035810264,0.13423603578115031,0.08489218292254538,-0.042409131570763724,0.03022889862421888,-0.006912737251402199,0.021729102148707987,-0.045126704880968885,0.02031508028281856,-0.04497058065597032,0.0012096011434887734,0.03397130678437736,0.021252461958269957,-0.03335894472480511,-0.034841429788056696,0.04333071374399184,-0.029724829587061633,0.039794162417544514,0.021998814471990893,-0.04094688832865596,-0.023080221293988602,-0.06768465256476058,0.07759942979447783,0.0606183839203041,-0.014333751848352219,-0.003737399709087849,-0.08731372457909269,-0.00654759020738832,0.05630823379353727,0.04349902948189502,0.04134947292226044,-0.033034899849929814,-0.003283644530637916,-0.038258108822767235,0.033167057394446545,-0.04797651932460209,-0.0021761224866850494,-0.031298153290580895,-0.0059744931413888,-0.022736046972988953,0.058991723664401835,-0.007456733951345716,-0.0007870257044475705,-0.045125419638972625,0.0907903955659085,0.05717902843207059,0.0699405963535204,-0.0009239934438298208,0.05986480509618956,-0.025993343207355628,-0.054446778432343704,-0.023047248290133687
-0.017746166183352882,0.012873597524393855,-0.07222876212338064,-0.006660274478211784,0.0055810866928016,4.561323069391888e-05,0.012741960630718328,-0.023307353977474812,0.06666041787811137,-0.095381640589692,0.010359879270525119,0.07093264183904369,0.061903848919228094,0.04748800106512631,-0.006083380754218099,-0.021550258425716888,0.08212585222528394,0.14348578252179475,-0.00949311724426699,-0.1336847372260578,-0.020820500753318545,0.045368750903071256,-0.020587162807845037,-0.005725361487255682,-0.01238006887865661,-0.0028764787654734455,0.028751005457431547,6.430901287882305e-05,0.11269013985943703,0.05652063230194927,-0.12294533403232259,-0.048354604507549824,0.03973239785723723,-0.048119902516009665,0.023329339407012983,-0.09999280002139703,0.012898969826650184,0.06038432846950631,-0.04729115380435046,-0.008243354934701028,0.04518930369123106,0.028807161639013038,-0.051125934540585845,-0.17120507396328594,0.0523533479197771,-0.06691356014204589,-0.010798640845966103,-0.02302101047340149,0.036252196761163355,0.005510348730088317,-0.0758224672766028,0.04310123873681489,-0.0786952306893804,0.015261200835597084,-0.012703069041919984,0.014055267138269392,-0.03805598749692377,0.020923910485965667,-0.009809909035332487,-0.07313839406158948,-0.11270279640336585,-0.010916818933286545,0.00756359149936535,-0.054651808513108135,0.029764308415419802,0.02392346988537638,0.05110443764989763,-0.04810179981408425,-0.12501088830561458,-0.028749437516080525,0.025171845944394936,-0.007214006130247342,0.04289186608393791,0.02632719452102164,-0.08039757614191727,0.1691766880607266,-0.03928857050708148,0.004274729037977459,-0.02191433549786347,-0.07674919997856917,-0.07432367401761257,-0.028212476572329784,-0.11316442051812058,-0.10622088282040833,0.03391825805122881,0.014741716347895688,0.1028922871115014,-0.09918650297287517,-0.020396342763550564,0.05254447521148625,-0.11124123968638419,0.08430363714016835,-0.049552239683788135,-0.00555709220041538,-0.10415097711085355,-0.07282811693469007,0.02202697684545207,0.02408777037514902,-0.06825076699711657,0.05426772756415787
-0.03568102427045609,0.04499823266943273,-0.022698038020086953,0.02402220925705125,-0.021087239779375943,-0.01598969765328563,-0.042438801521752646,-0.037386968140118104,0.010186256535856683,0.0059959110751797795,-0.027986294996388886,-0.02274411486115661,0.023025746261532032,-0.0004936843232826593,-0.0066441026734784065,-0.0035939295672396294,-0.014141900876338159,0.01780663629946559,0.043143425015887166,0.028009132879151435,0.042363157889854744,-0.0009766073848078102,-0.07438166218482113,0.024950093357886765,0.024944627088216306,-0.0017271928387715262,-0.023167330661909548,0.025050627869911583,-0.03183884221999867,-0.07649848879768956,-0.04385270942985206,-0.02347281016659665,-0.038058280494963015,-0.020887201225104134,-0.042796868513211045,-0.023901253779699042,-0.0023563758140764343,0.029498023431314916,-0.0349958626474288,0.029269231588409432,-0.024054399821204484,-0.006234917020950459,-0.041242008660867066,-0.11928923745626267,0.017092137920645265,0.12161529611879059,0.006099596549019249,0.029295471444565097,-0.04641302299646604,-0.0013635191383495969,-0.011074942858099311,0.0393132363432156,0.032407170211410194,-0.02758759279896823,-0.03840932905584469,-0.06664068779960491,0.01132616220024693,-0.04477927936454718,-0.06310637699268305,0.04493348021036762,0.003146279414833735,0.04433552668463252,0.004005049291566028,0.04191900702342055,-0.020854175854990872,-0.04210704617354756,0.03041144819020706,-0.04213576153895594,0.06860590909296971,0.05263562486740718,0.03341307603502128,-0.042499521437646,0.026438755238703586,0.024891466574193107,0.011275812064394748,0.038332089794412945,0.019847344852724474,0.008378714485716669,0.06465165205542261,-0.0016931936740146327,0.027782161040990266,-0.010916211743719912,0.0036473824552878484,-0.027733966126817697,-0.17120392853194963,-0.04339989385590803,0.04715276326082324,-0.032076883441605857,-0.06210296050890619,-0.02681647573111802,0.017842953871685562,-0.0005083269170089159,-0.004035024693062679,-0.05037851683558844,0.06469021778118896,0.014741526105018039,-0.026733152388704207,0.020593625550303325,-0.051895099952298865,0.00744359324874264
-0.0356810242704561,0.04499823266943274,-0.022698038020087043,0.024022209257051147,-0.021087239779375957,-0.01598969765328565,-0.04243880152175266,-0.03738696814011829,-0.025553117279565923,0.04657395433796965,-0.007800862395919196,-0.03891676574798508,0.028420811634432604,0.010543583237310422,-0.0012038707516592183,-0.018281442431606967,-0.004951517609717243,-0.008779472671800185,-0.015007836443890515,0.01977885259676756,-0.007460213685238579,0.031891683287366315,0.0003813082736482334,-0.07932989673499712,0.06314803864808002,-0.014708650250851408,-0.05017754680095698,-0.025220656009267848,-0.0013511643296517844,-0.007961439182353657,0.006169445321943009,-0.03672317530592099,-0.036874467530474395,-0.013855445440353173,0.017425986231041656,0.012999196458062405,-0.02356116129331264,0.03831949961207108,-0.031972985671980224,-0.013252334021690789,-0.009996277704327707,-0.0035091608097922605,0.0036999866917251586,-0.011902737907083124,-0.023894282435021685,-0.008103635591830166,-0.004849299393953537,-0.023702482744866585,0.02038921883852097,0.001074390737508203,-0.024121929531201753,0.027899901467038173,-0.0428070922049301,0.02682833242494407,-0.015454604994756815,0.029271813515635507,0.008390451192892492,0.025395673536730775,-0.02327859536112488,0.026720084081423102,0.041060276256179355,0.028550435341330515,-0.018588263857358105,-0.0031434251448486552,-0.038615908251128366,-0.04117204160184638,-0.016425941903359456,0.02039198187879475,0.037181387839680294,-0.020728651226976206,-0.028024999510431522,-0.014697645895935614,0.013686370356625458,-0.011131469608884859,-0.005518391936688428,0.04356572491423895,0.010497874366497606,0.0025972544981469874,-0.015600030733869728,-0.017264162526902563,-0.035414619521100574,0.007065507280453032,-0.006814348023985644,-0.04877202821069579,0.016035911345510016,-0.04717018786681145,0.03528949653754174,-0.03498331513168551,-0.021174783226231713,-0.025755462963567354,0.045324261852396575,-0.07035245354803911,-0.004094461141122079,-0.02514808089605359,0.04308661453662154,-0.002726823919661588,-0.04967252506788574,-0.0007059463517438159,0.02387996489315015,0.049223681101904906
-0.03568102427045612,0.0449982326694327,-0.022698038020086988,0.024022209257051216,-0.021087239779376123,-0.01598969765328547,-0.042438801521752716,-0.03738696814011802,0.015971769254954984,-0.0020851422062139334,0.02848717992270331,0.01626851344488963,0.02181992339654023,0.06605559130216458,0.08039485443866431,0.008358866789858315,-0.10170532858844326,0.02358277612669251,0.07608981030360219,0.051485775671361506,0.0231356657232213,-0.0447855805645248,0.005157895984637313,0.09457537329984345,0.060269636036931584,0.0033412669105550787,-0.018167544845906262,-0.005253516144296642,0.0721721680629467,0.08966608409984914,0.05612987166763824,-0.049495464046649895,0.0148782200443843,0.010585877082583975,0.014857857793394755,-0.0008219247369801241,-0.020645633867848227,0.014329077138393114,0.005168781770055864,0.02358308182119433,-0.002336601950608393,-0.2023016275083333,0.06743684870533367,-0.09076336959986668,-0.09555173307669401,0.07301780529484168,0.04434472719319137,-0.03606162687397209,-0.12306103406963534,-0.1696291575289537,0.05915824444606496,0.034284822139840035,-0.036674305608326935,0.05336758471190124,-0.031128202299360246,-5.714400552295418e-05,-0.08015090705483913,0.03908188355597997,-0.03729836848711025,0.02587637662277163,-0.02374368565378242,0.0029240884278346107,-0.011764733968957847,-0.035433922420962834,0.05544511168619942,0.07325530736480253,-0.021449534474404987,-0.03453472072433345,0.05180410397355937,0.05914264512138959,-0.008556065143607856,-0.03165329525359216,-0.006602284632700106,0.06835578037150626,-0.005109243875396929,-0.03256324208536476,-0.016425972362229216,-0.08221314057985554,0.138838602891211,-0.030108648762919053,-0.01856931227686134,-0.0028456171724307983,0.022735944076008496,0.0007051489881588345,-0.008857276428932734,-0.05706276018773297,0.046290353709788845,0.030041049481426347,0.08437560156106966,0.018112324696872528,0.07871129407766501,0.03336987449765203,-0.047927016621166725,0.10687565075460832,-0.0651123676617382,-0.062155618882057354,0.0035443842077159697,-0.05457048005159529,0.06989988875758915,-0.021553921244303515
